918 200
<unk> 0.179559 -0.130850 -0.077811 0.245033 0.062565 -0.081946 0.040474 -0.165887 0.132949 0.078255 0.181107 0.178102 -0.241749 0.120052 -0.020940 0.052002 0.201393 -0.227599 -0.198175 0.184936 0.163850 -0.118556 0.078645 0.211079 0.107483 0.180232 0.225650 0.173680 0.128381 0.094337 0.039584 0.191947 0.221875 0.210108 0.189823 -0.157383 -0.185077 -0.150792 -0.236410 -0.188867 -0.248230 0.045626 0.104634 -0.094296 0.102091 0.015518 0.125615 -0.034470 -0.245932 0.222652 0.141734 -0.005820 -0.227228 0.173219 0.037638 0.080183 -0.040890 -0.039516 -0.095444 -0.176703 0.017450 -0.041823 -0.173543 0.159436 0.170917 -0.034598 -0.112619 -0.193897 -0.095105 0.082814 -0.177528 0.062205 -0.199977 -0.162964 -0.152254 0.116701 0.010471 -0.236587 -0.104160 -0.153936 0.130085 -0.114238 0.063560 0.024145 -0.174987 -0.123841 0.102045 -0.077346 0.044634 -0.084159 -0.025958 0.110752 0.018776 0.082449 -0.044340 -0.002740 -0.148547 -0.067412 0.016007 0.032561 0.213137 -0.016622 -0.161495 -0.158857 -0.207959 -0.148738 -0.189947 -0.110189 -0.167279 -0.192578 0.182510 0.225212 -0.025796 -0.145745 0.060622 -0.156153 0.063083 0.232241 0.018309 0.116076 0.096286 0.189266 -0.228227 0.145049 0.012872 0.092840 -0.236894 0.237159 -0.237201 -0.037301 -0.124548 -0.001943 0.181340 0.050849 0.156186 -0.148568 0.063201 0.010948 -0.073177 0.000590 0.215888 -0.239577 0.016395 0.134248 -0.222700 -0.089147 -0.148440 -0.089032 -0.029465 0.109364 0.208483 0.008236 -0.113801 0.243351 -0.166038 -0.028149 0.219279 0.103395 -0.195302 -0.228243 0.033062 -0.177324 -0.045551 0.033762 -0.195853 -0.171372 -0.226259 0.145497 -0.235618 0.006086 -0.136614 -0.031257 -0.197387 0.009400 -0.146850 -0.085701 -0.116091 -0.060493 0.068837 -0.097811 0.230141 0.154194 0.066019 0.077297 -0.012333 -0.203083 0.041512 -0.030764 0.192963 0.105419 0.112575 -0.101536 0.010819 0.074395 -0.194340 -0.237120 -0.024543 -0.200393 -0.073550 0.142241
would 0.284050 0.293860 -0.121010 -0.106050 0.393640 0.315400 -0.363040 -0.277930 0.214930 0.391400 0.077963 0.178860 0.074721 -0.244930 0.136750 -0.259690 -0.175640 0.935160 0.206570 -0.341360 -0.106940 3.475100 -0.548220 0.236400 -0.152470 0.216660 0.042201 -0.162060 -0.120150 -0.124560 -0.125750 -0.424310 0.066287 -0.212970 0.074132 -0.378390 -0.612620 -0.711890 0.125750 0.223510 0.265740 -0.012818 0.145670 0.404750 -0.321370 0.355640 0.351570 0.040196 -0.241270 -0.205180 0.276850 -0.111790 -0.552270 0.164290 0.518160 -0.279150 0.103180 0.080082 -0.097483 0.147030 0.423970 0.076136 -0.050436 -0.122550 0.423570 0.284410 -0.181440 0.673210 0.014167 0.461950 0.816080 0.149470 0.444830 0.289010 -0.143780 0.268520 -0.479940 -0.055422 -0.134920 -0.146340 0.185510 -0.236490 0.094261 0.038218 0.030357 -0.066422 -0.746400 -0.491910 -0.041817 -0.960100 0.325630 0.042687 0.323390 0.033022 -0.283710 0.255490 -0.101390 0.077554 -0.356430 -0.552630 0.159030 -0.038428 -0.181660 -0.339170 0.132310 0.057777 -0.311380 1.359700 -0.510680 -0.436040 -0.264330 -0.158360 -0.005114 0.014308 0.188620 -0.090834 -0.043231 -0.592000 0.035117 0.025005 0.535250 -0.364260 0.680730 -0.094277 0.242180 -0.446270 0.213350 0.328860 0.314300 -0.009244 -0.280970 0.353660 -0.040632 -0.407400 0.370290 0.713760 0.190280 -0.241900 -0.053355 -0.154220 -0.098929 0.125200 0.556690 -0.150620 1.154000 0.282280 -0.502540 -0.172140 0.040674 0.215010 0.131530 0.438920 0.005880 0.344180 -0.232240 -0.296790 -0.197670 0.439450 -0.148200 0.064113 -0.470620 -0.015481 0.297940 -0.295180 -0.109780 0.363440 -0.096705 -0.269860 -0.112360 0.412210 0.522840 0.182030 0.342690 -0.139280 0.369730 0.117790 -0.491410 -0.320030 0.230440 0.184430 1.293700 -0.222580 0.003193 0.028787 -0.296900 0.364110 -0.125000 0.250030 0.230860 0.362440 -0.271020 0.261380 -0.099219 -0.020817 -0.041567 -0.025865 -0.094608 0.365820 -0.088731 0.360700
thrift 0.538650 0.534490 -0.104290 -0.323180 0.293930 -0.268970 0.503950 -0.137950 -0.098959 0.314290 1.066700 -0.680950 0.015314 0.439240 0.371710 0.141910 -0.401460 0.019740 -0.114240 0.429580 -0.018076 0.363150 -0.124230 -0.688440 0.140680 0.106350 -0.054282 0.355490 -0.601970 0.180970 -0.710800 0.103000 -0.380720 -0.339740 -0.630030 0.289760 0.269670 0.664820 -0.085660 -0.341120 0.550460 0.127820 0.405270 0.546320 -0.658940 0.850280 -0.157810 0.104470 -0.133320 -0.328220 -0.264550 0.253160 0.103550 -0.079559 0.360160 -1.309100 -1.324500 -0.368340 -0.311290 -0.009447 0.544620 -0.035183 -1.146100 0.971640 -0.266320 0.342440 0.025559 -0.526370 0.049748 1.056200 0.506390 0.426970 0.024410 -0.573660 0.954110 0.694870 0.137260 0.237120 0.490990 -0.312560 -0.364360 0.197950 0.197160 0.108690 -0.138680 -0.269980 0.105980 0.138790 0.261210 0.113050 -0.243310 -0.091168 0.712380 0.496800 0.125660 0.105680 -0.349240 0.036599 -0.408180 -0.229190 -0.195260 0.104240 -0.162760 -0.024907 -0.083618 -0.235560 0.159700 0.611380 0.663620 -0.439700 0.272970 0.327050 -0.485050 0.715280 0.213070 0.053837 0.217160 0.264050 0.075695 -0.106120 0.484070 0.549640 0.693600 -0.471580 -0.781940 -0.157010 0.401290 0.524740 -0.324260 -0.243410 -0.365900 -0.776740 0.328570 -0.349860 -0.355030 -0.180970 0.350100 0.325820 1.273700 0.195630 0.735880 -0.270730 -0.209190 -0.244870 0.200530 -0.237060 1.462900 -0.103460 -0.301290 -0.004472 -0.563850 -1.234400 0.659420 -0.156360 -0.225680 0.508930 -0.153200 -0.143270 0.163380 0.097741 -0.157560 0.555340 0.641770 -0.275160 0.245660 0.240180 0.515370 0.522800 0.494500 0.115180 0.252550 -0.052980 -0.321670 0.270480 0.378430 -0.457420 -0.542210 0.568850 0.202530 0.449970 -0.186500 0.191510 0.205940 -0.113080 -0.025568 1.018800 -0.525420 -0.136620 0.226580 0.843370 -0.642340 0.235840 0.673470 0.256420 -0.297480 0.206490 -0.391160 0.755500 -0.135560 -0.166100
110 -0.174920 -0.394180 -0.861390 -0.140150 0.570980 -0.319860 0.074578 -0.416050 -0.728550 -0.166160 -0.170450 0.158160 -0.478310 0.121400 -0.058236 0.272540 -0.338590 0.080299 0.186450 -0.169280 -0.401030 1.482300 -0.268400 -0.215300 -0.636490 0.096652 0.042738 0.222240 -0.299510 0.202190 0.377520 0.015404 -0.199230 -0.179030 -0.138140 0.521140 -0.930450 -0.042945 0.025310 0.223270 0.301820 -0.033118 -0.179180 -0.451070 0.368160 0.305440 -0.297430 0.174060 -0.416350 -0.288390 0.357780 -0.282920 0.631620 0.023699 0.280040 -0.350270 -0.062951 0.514750 -0.217550 0.297460 0.000144 0.303210 0.290310 -0.277120 0.273190 -0.555130 0.017647 0.146680 -0.226980 -0.165490 -0.132540 -0.035258 -0.435450 -0.315130 0.602230 0.671630 0.177230 -0.129790 -0.110340 0.568320 -0.473250 -0.705730 -0.277570 0.453670 -0.388100 -0.438270 -0.474740 -0.073261 -0.545970 0.599600 -0.413570 -0.096162 0.151490 -0.439470 1.300700 0.324510 0.228450 0.039311 -0.350340 -0.316630 -0.019404 -0.418910 -0.382940 0.394900 0.227510 0.144190 0.393010 0.745530 -0.422920 0.248390 -0.004768 0.236310 0.778920 0.103750 -0.450150 0.031843 0.408440 0.064512 0.303340 -0.449740 0.050974 0.305720 0.264490 0.091161 0.366980 -0.657540 -0.383810 0.176670 0.218870 -0.133810 0.243650 0.318920 -0.298570 0.245530 0.014725 0.123700 -0.071264 -0.306240 -0.144350 0.155100 -0.113210 -0.345400 -0.234380 0.034088 0.660620 -0.280950 -0.056769 0.500650 0.098392 0.654630 0.158870 -0.122670 0.776450 -0.644900 0.563470 -0.294150 -0.097015 -0.435860 -0.122130 -0.669690 0.035864 -0.170960 0.757070 0.211320 0.247890 0.371730 -0.113350 0.016403 -0.300730 0.561600 0.203990 0.020945 0.481350 0.159980 -0.029596 -0.373450 0.601530 0.026229 0.119840 -0.002112 0.612330 0.124410 0.009434 0.376600 0.185110 -0.356720 -0.242560 0.522030 -0.315840 -0.161420 -0.618270 0.113320 -0.280530 -0.506500 0.477970 -0.071388 -0.152270 0.278910 -0.993600 0.112130
alaska 0.123640 0.849310 0.742320 -0.245320 -0.541830 0.319360 -0.119010 0.519520 -0.415550 0.028250 -0.022498 -0.311920 0.076901 -0.523550 0.479300 1.188200 -0.856890 -0.025057 -0.026540 0.151070 0.338190 0.952330 -0.321520 0.230340 0.513440 0.442510 0.097944 -0.261500 -0.018096 -0.550740 0.601200 -0.361460 0.197420 -0.093448 -0.220950 -0.369480 0.353690 0.397340 -0.177170 -0.139170 -0.064125 -0.169010 0.119860 -0.485840 -0.201490 0.276350 -0.021950 -0.080714 0.452080 0.165040 0.400970 0.091957 -0.268960 -0.565420 0.380390 0.164560 -0.812030 -0.815570 -0.180570 0.918660 -0.755620 0.281930 -0.599060 -0.696510 0.118050 0.073866 -0.151830 -0.131250 0.660380 -0.602530 0.345730 0.064354 0.255630 -0.161260 0.149980 0.489780 0.207320 0.310020 -0.328180 -0.191930 0.267800 -0.031545 -0.028690 0.058070 0.289540 -0.566110 -0.872700 -0.261130 0.380050 0.001043 -0.299440 -0.599620 -0.152740 -0.099552 -0.445580 -0.235960 0.250740 -0.061751 -0.423390 -0.712730 -0.557990 -0.390270 0.181750 -0.330570 0.522250 -0.928720 0.190090 1.181500 -0.023486 0.007219 0.023133 0.088232 1.276700 0.902380 -0.336660 -0.081608 -0.712980 -0.518110 -0.199550 -0.269910 -0.306390 -0.715690 -0.204360 -0.548530 0.440000 -0.212700 0.317640 0.514050 0.210130 -0.636120 0.291110 0.466320 0.449820 0.467470 -0.057096 0.157330 0.798580 0.537890 0.533500 -0.202170 0.790160 -0.029808 -0.202020 0.853230 0.623900 0.263630 -0.332970 -0.128540 1.198500 -0.180610 -1.039900 0.065739 0.046904 -0.416610 0.312890 -0.453070 0.984370 0.296860 -0.052626 -0.695320 -0.024598 0.831220 -0.214910 -0.010487 -0.504350 0.119870 -0.151140 -0.279850 0.240370 -0.056889 1.201200 0.060459 -0.185040 -0.150400 -0.396150 0.221410 0.614330 -0.563530 -0.538980 0.085438 0.676410 0.258550 -0.628990 0.072170 -0.510800 0.421620 0.227830 -0.154200 -0.193930 -0.296280 -0.194340 0.129470 -0.527550 -0.362100 -0.034959 0.551140 -0.520990 -0.608970 0.274560 0.293080
else 0.556840 0.366460 0.229820 0.088780 -0.338570 0.054800 -0.473550 0.038492 0.497340 0.493670 -0.408180 0.230590 0.298170 -0.081444 -0.168930 0.357270 -0.048765 0.430220 0.138330 0.332910 0.062605 2.333400 0.019126 0.121430 0.024134 -0.506190 0.180730 0.003470 -0.083418 -0.419520 -0.209900 -0.494800 -0.019396 0.072913 -0.302330 -0.036210 -0.403870 0.052940 0.276280 0.115790 -0.257880 -0.163430 0.026004 0.077167 -0.326590 0.287600 0.522600 0.061779 0.197990 0.030836 0.142960 0.172130 -0.016408 0.171730 0.211770 0.055694 0.083082 -0.618920 0.060661 0.125870 -0.446060 -0.153490 0.134700 -0.064792 0.112300 -0.117730 -0.153860 0.567300 0.376690 -0.076703 0.719010 0.018651 -0.166810 -0.105840 -0.421740 -0.702640 -0.362260 -0.423710 -0.127370 0.335660 0.092184 0.252870 0.287960 0.221350 0.021832 -0.478300 -0.411840 -0.205260 0.237390 -1.172700 0.342000 -0.020380 0.253830 0.086147 -0.156700 0.194530 -0.061849 -0.238020 -0.593900 -0.232570 0.227940 0.549190 -0.437070 0.027924 0.279350 0.068204 -0.073882 1.442700 -0.204420 -0.015076 0.427960 0.267270 0.224540 0.024443 -0.257530 -0.265380 0.134290 -0.362910 -0.180680 0.372090 0.671630 0.047281 0.318970 -0.401250 -0.157940 0.003399 -0.022765 0.026816 -0.196340 -0.516660 -0.488690 0.311180 -0.078095 -0.235160 -0.164460 0.055762 0.364940 -0.147150 0.072857 0.082451 0.309760 -0.315910 0.132080 -0.299550 1.339400 0.388700 0.492290 -0.533980 -0.004543 0.088959 0.626620 0.461940 -0.411110 0.424830 -0.466670 -0.232270 -0.092937 -0.163770 -0.122280 0.533660 -0.170730 0.047647 0.391290 -0.613560 -0.238560 -0.279150 0.073040 0.197290 -0.588910 -0.308910 -0.207290 0.429480 -0.341320 0.416070 0.469740 -0.028323 0.206000 0.447970 0.233200 0.296470 0.865210 -0.196030 -0.148580 -0.061448 -0.299290 -0.292580 0.438490 0.025931 0.216650 -0.207840 -0.261540 -0.036314 -0.158870 0.063670 0.308540 -0.147220 -0.030738 0.105740 -0.247720 -0.384010
nevada 0.099951 0.384660 -0.146090 -0.262890 0.402860 0.646090 1.007300 -0.409460 -0.728220 -0.492510 0.346150 -0.195650 -0.023619 0.006646 0.612910 -0.141030 0.506990 0.536790 -0.499070 -0.092513 0.391970 0.796580 -0.380180 0.292460 0.998210 -0.172830 -0.228950 0.103650 -0.094315 -0.595690 -0.106600 -0.392130 0.315560 0.133590 0.319160 -0.175960 -0.270520 0.292420 0.098266 0.504770 0.487120 -0.142920 -0.408880 -0.295070 -0.276520 0.179300 0.162890 -0.363900 0.312740 -0.178140 -0.066435 0.041221 -0.122740 0.041422 0.487320 0.047284 -0.972330 -0.164840 -0.252170 0.133530 -0.000853 0.237280 -0.093675 0.620960 -0.005846 -0.083774 -0.634380 -0.094142 0.575070 -0.455150 -0.277030 -0.032717 0.347060 -0.394740 1.011200 -0.266080 -0.324610 0.403460 0.095905 0.099280 -0.432680 0.011683 0.176970 -0.221810 0.053470 -0.845030 -1.446900 -0.137520 0.428780 0.182820 -0.196140 0.167680 -0.378600 0.312360 0.756990 -0.382510 0.586220 -0.015683 0.456340 -0.098026 -0.402800 -0.265950 0.726490 -0.639850 0.392290 -0.928490 0.125410 1.377400 0.298300 -0.411750 -0.129710 0.038710 0.708870 0.628270 -0.156170 -0.225050 -0.312360 0.151400 -0.994510 0.390480 -0.091895 -0.691620 0.355980 -0.781920 0.207400 -0.077512 0.254930 0.173610 -0.064972 -0.079859 0.282290 0.351400 0.098079 -0.161350 1.221900 0.407010 0.271000 0.615490 0.238570 0.290660 0.378380 0.221760 -0.332880 0.299010 0.818570 0.305120 0.582260 0.172840 0.350830 0.423360 0.113100 0.134130 -0.635520 -0.744080 0.617760 -0.414640 -0.070038 0.395330 0.222080 -0.776110 -1.038900 -0.303170 0.033237 0.182500 0.202010 0.345680 0.421690 -0.485630 0.419410 0.420760 0.496710 -0.123970 -0.335810 -0.117030 -0.368030 -0.447960 0.706940 0.068383 0.177600 0.063771 0.782310 0.778050 -0.670120 0.485470 -0.178600 0.561640 0.487230 0.463970 -0.189060 0.052476 0.277890 0.085908 -0.118120 0.083521 -0.259820 0.582460 -0.387930 -0.213960 -0.073077 0.223240
cheap 0.501280 -0.010705 0.139630 -0.185820 0.075115 0.147650 -0.595860 0.457190 -0.315110 0.081508 -0.230880 0.131690 -0.211760 0.248330 0.089339 0.408770 -0.353270 0.311290 0.083649 0.174340 -0.231910 1.835300 -0.751610 -0.086575 -0.189970 -0.935480 -0.163250 0.386820 0.213370 -0.086996 -0.204680 -0.067491 0.097335 0.843710 -0.210780 0.058242 0.579680 -0.040873 0.564010 0.075410 0.552510 0.237550 0.069963 -0.469410 -0.139500 -0.661660 1.179100 0.186200 0.196660 0.289720 -0.078502 -0.148950 0.138630 0.037131 -0.256460 -0.243650 -0.826460 0.288060 0.140760 0.053372 -0.137150 -0.191270 0.078239 0.021663 0.198310 0.134220 -0.271070 0.079244 0.205570 -0.507430 1.103200 0.180890 -0.040313 0.216490 -0.365100 0.753340 0.172550 -0.144760 -0.563300 -0.120530 -0.393840 0.009810 0.307790 0.150490 0.423200 -0.277740 0.488260 -0.211380 0.279610 -0.955770 0.339960 0.426530 -0.787970 0.002935 -0.206620 -0.178730 0.121330 -0.299950 0.175900 0.469030 0.065417 0.752870 -0.108470 -0.427720 0.266460 0.444960 0.259560 0.397020 -0.513220 0.604950 0.093260 -0.435250 0.140090 -0.191560 -0.455950 0.293500 0.796010 -0.739020 -0.004792 -0.182300 0.540630 -0.295700 0.281020 -0.387460 -0.520890 0.178490 -0.141990 -0.318580 0.362440 0.082726 0.316910 0.402210 0.177610 -0.211890 0.588150 0.258980 0.163990 -0.050380 0.630190 -0.210350 -0.164350 -0.776640 0.163100 -0.158470 0.440910 -0.262080 0.352130 -0.808310 -0.268770 0.277600 -0.196370 -0.139500 0.115440 -0.049489 -0.461040 -0.328320 -0.516520 0.057063 -0.498580 -0.782750 -0.395310 0.224700 0.042268 0.076307 0.064108 -0.551550 0.268700 0.677070 -0.479570 -0.028033 -0.780850 -0.226150 -0.181160 1.005600 0.513240 -0.065029 -0.243450 0.511400 0.013184 1.146200 0.886490 -0.422580 -0.710880 0.075136 -0.125010 0.492700 -0.282210 -0.222730 0.305890 -0.130510 -0.238340 0.145610 0.090342 0.712820 0.926430 -0.137110 -1.531400 -0.244770 -0.306780 0.635490
that 0.148050 0.108750 -0.036278 -0.153860 0.371810 0.293000 -0.702600 0.000956 0.245510 0.034012 0.034138 0.643640 -0.012599 0.024661 0.162860 0.077917 -0.315250 0.720810 -0.518420 -0.255000 0.489590 3.174900 -0.379910 -0.038270 0.045760 0.067930 -0.117160 -0.334100 -0.107230 -0.238730 -0.457600 -0.024502 0.147230 -0.135460 0.089812 -0.387680 -0.957970 -0.620720 -0.117630 0.213220 0.080894 -0.259670 -0.093584 0.521060 -0.117930 0.212240 0.451150 -0.063134 -0.219540 -0.027564 0.018740 -0.352280 -0.234180 0.177590 0.193680 -0.203960 -0.115820 -0.190910 0.115070 0.137670 0.083718 0.179580 -0.225680 0.006161 0.151130 -0.175240 -0.237940 0.215190 -0.087514 0.306290 0.418410 0.291300 -0.043460 0.204000 -0.073017 0.381450 -0.142910 -0.173080 -0.397700 -0.288600 -0.028762 0.020877 -0.112520 0.310020 0.172080 0.117180 -0.728130 -0.270980 0.350790 -1.109600 0.718170 0.307750 0.532190 0.062995 -0.508550 0.418160 0.296860 0.062927 0.043386 -0.320520 0.143990 0.276500 -0.026490 0.077377 0.057718 -0.089084 0.063310 1.164100 -0.441090 -0.283680 0.260620 -0.480250 0.040180 -0.130920 0.425190 0.153050 -0.265430 -0.250010 -0.348730 0.135450 0.288680 0.569920 0.238260 0.295150 0.117430 -0.418140 0.353570 0.059823 0.377230 0.096062 -0.181460 0.198740 0.207470 -0.244540 0.312930 0.289010 0.079401 -0.285560 -0.031735 -0.043442 0.021977 0.250870 0.181580 -0.317740 1.605700 0.345430 -0.019671 -0.624050 0.179090 0.150200 -0.001236 0.275070 -0.030791 0.386230 0.238720 -0.592150 -0.239350 0.338000 0.195470 -0.173600 -0.221770 0.126240 0.130520 -0.164210 0.009246 0.192340 -0.055088 0.156500 -0.287120 0.533270 0.456240 0.400830 0.366370 0.146080 -0.137290 -0.158970 -0.391630 0.094353 0.133970 0.095591 1.424700 -0.263000 -0.156790 0.043102 -0.111610 0.116860 -0.324760 0.214260 0.442160 0.364770 0.107030 0.237980 -0.143440 0.272330 0.176540 -0.176130 0.054810 0.480220 -0.086013 -0.217910
meaning 0.432980 -0.078191 0.676570 -0.203660 0.188810 -0.115510 -0.519980 0.330930 0.190780 -0.263700 -0.528470 -0.041325 -0.248310 -0.206540 0.561780 0.036064 0.439530 0.373620 0.051306 -0.376240 0.079284 2.548400 -0.066969 -0.094531 0.295110 -0.446800 0.146820 0.214460 -0.157900 0.158570 0.304480 -0.261380 -0.694790 0.076204 0.501200 -0.609430 -0.297730 -0.494610 0.091871 -0.029931 -0.012497 -0.251890 -0.043616 -0.405350 -0.102640 0.429760 0.554390 0.509600 0.090058 0.255560 -0.457940 -0.276630 0.133280 0.285870 0.261000 -0.201940 -0.137430 0.151500 0.236980 0.351440 -0.447990 0.134060 -0.334440 -0.134010 -0.260860 0.214040 0.158390 -0.018680 0.706890 -0.045212 0.323620 0.728690 -0.132000 -0.094278 0.084138 -0.464270 -0.203680 -0.483080 0.180420 0.029868 0.844260 -0.257480 0.000421 -0.112560 -0.157890 -0.018992 -0.239850 -0.043569 0.364840 -0.601370 0.364060 -0.032919 0.228000 -0.350100 0.233370 -0.223400 -0.129490 -0.408890 -0.344890 -0.135410 -0.074784 0.022378 0.464510 0.202120 0.143860 -0.423790 -0.285090 0.440970 -0.121740 0.328310 -0.019193 0.478810 0.465460 0.076395 -0.319770 0.193110 -0.434060 0.434670 0.172090 0.504840 0.444770 0.260140 -0.378820 -0.356370 0.022280 0.055585 0.194340 0.250600 0.267750 0.043989 -0.188860 0.274280 0.056535 0.224590 0.167360 -0.521520 -0.436220 -0.188710 -0.017578 0.029498 0.103670 0.121910 0.575510 -0.457760 0.830170 -0.173180 -0.146940 0.097834 0.036724 0.053408 -0.446840 0.634450 -0.107470 0.391780 0.007138 -0.169570 0.149300 0.301020 0.017383 0.051594 0.165470 -0.392170 0.115300 -0.451790 0.055301 -0.036586 0.183310 -0.026448 -0.078898 0.349750 -0.073348 0.158160 0.560460 0.021204 0.089271 -0.066604 0.191860 0.017965 0.050323 -0.031935 1.095400 -0.331070 0.216760 -0.226680 -0.042157 -0.074537 0.084799 -0.164310 -0.062818 -0.080157 -0.062783 0.125840 0.601250 -0.362530 0.248630 -0.960830 0.262770 0.407950 -0.213670 0.450680
any 0.631130 0.431830 0.231030 -0.649090 0.237440 0.446190 -0.861480 0.293410 0.080033 0.008563 0.101650 0.627830 0.250470 0.052425 0.630450 -0.040008 0.252120 0.621470 0.066967 -0.079787 -0.021607 3.423600 -0.047925 0.246200 -0.028834 0.040330 -0.278580 -0.279390 0.356060 -0.573730 -0.099960 -0.323740 0.178120 0.020671 0.236370 -0.170740 -0.493450 -0.402890 -0.341840 -0.194050 0.425060 -0.300810 0.199970 0.671500 -0.104610 -0.008718 -0.044562 0.170450 0.659120 0.089096 -0.141780 -0.588170 -0.296990 0.459010 0.614750 0.224550 0.287780 -0.080486 -0.166250 0.497910 -0.010441 -0.173070 -0.113640 -0.171770 0.650010 -0.207090 -0.002592 0.683320 0.135560 0.428120 0.731910 0.096278 -0.132720 -0.250730 -0.283970 0.427650 -0.227040 -0.903280 0.136830 -0.223580 0.070136 -0.062926 0.300400 0.162260 0.007066 -0.305150 -0.338730 -0.348210 0.453190 -1.275900 0.357650 0.286960 0.951110 0.049315 -0.109820 -0.103400 -0.077415 0.121650 -0.408480 0.005166 0.500230 0.030727 -0.036101 -0.238390 -0.069315 -0.036846 -0.021026 1.154500 -0.074401 -0.294120 -0.034114 -0.467060 0.200230 -0.007783 0.353520 -0.059343 0.139220 -0.854230 -0.149590 -0.141270 0.341720 0.315670 0.324080 0.165290 -0.379180 -0.248570 0.224900 0.341100 0.251600 -0.195140 -0.922070 0.613800 0.026206 -0.397530 -0.074722 0.177630 -0.118090 -0.232320 -0.139060 -0.459380 0.052323 0.172180 0.432710 -0.234320 1.304100 0.095481 -0.097652 0.016550 -0.206640 -0.171940 -0.426290 0.781760 -0.388170 0.301790 -0.247710 -0.138190 0.043340 0.125040 -0.186260 0.200740 -0.169980 -0.046707 0.480900 -0.182300 -0.475000 0.134390 -0.318790 0.115850 -0.684830 0.938700 0.049493 0.098050 -0.351610 -0.017529 0.133320 -0.144230 -0.294720 0.497770 0.151640 0.013853 1.082300 -0.134190 -0.004437 -0.286200 0.052703 -0.046192 -0.085992 0.250920 0.300810 0.321170 -0.364670 -0.149220 0.025013 -0.054957 -0.014740 0.227840 0.048475 -0.074814 -0.122990 -0.110010
try 0.063192 0.405170 -0.467150 -0.057811 0.375410 -0.097392 -0.774000 -0.151490 -0.125020 1.269100 -0.397830 0.087969 0.087665 -0.191380 0.002940 -0.566240 -0.416850 0.037273 -0.353920 -0.083665 0.002726 2.525400 -0.263700 0.228450 0.298330 -0.230640 -0.005584 0.236670 0.184390 -0.091923 -0.072183 -0.675040 0.100020 -0.234480 -0.091017 -0.653080 -0.319900 -0.083014 0.305700 0.013587 0.456840 -0.025428 0.019024 0.451350 -0.315530 0.409000 0.381640 -0.024626 0.172910 0.397880 0.169120 0.273400 -0.458450 0.794900 0.458790 -0.370360 0.107160 -0.064969 0.277370 -0.073338 -0.453640 0.336540 -0.198940 0.225080 0.484150 -0.224650 0.075406 0.219890 0.110720 -0.027179 0.662330 0.460790 0.496740 -0.062561 -0.212180 0.063878 -0.443830 0.074162 -0.534010 0.074620 0.396780 0.171770 0.409630 -0.202470 0.082779 -0.268880 -0.157820 -0.258720 -0.186550 -0.640740 0.882150 0.172580 -0.202240 -0.147670 -0.090901 -0.349210 -0.758930 -0.071947 -0.037373 -0.295320 -0.024697 -0.123610 -0.308550 -0.209070 0.721990 0.690020 -0.055411 1.137600 -0.322670 -0.765820 -0.077417 0.181170 -0.041347 0.221740 -0.299450 -0.401480 0.237430 -0.482530 -0.626830 -0.075001 0.537490 -0.253610 0.511950 -0.449210 0.052655 -0.335710 -0.227080 0.337370 0.429880 0.540290 -0.474830 0.381350 0.189770 -0.590010 -0.289960 0.147120 0.265800 -0.121910 -0.208990 0.006902 0.027055 0.458560 0.364680 0.261150 0.732890 -0.024728 -0.029008 -0.221170 -0.167620 0.363610 0.095735 0.486850 -0.080813 0.133890 -0.029966 -0.055510 -0.067381 0.040202 0.083321 -0.140630 -0.305880 -0.152540 -0.003130 0.149280 0.097031 -0.228030 0.168500 0.139730 -0.677520 -0.057927 -0.386720 -0.739760 -0.359390 -0.306590 0.379130 -0.122390 -0.668380 -0.619280 0.741070 -0.142450 0.673840 -0.570940 -0.052538 -0.110350 -0.510510 -0.225630 0.257140 -0.669270 -0.099593 0.333770 -0.655140 0.023444 0.177400 0.021819 -0.030805 0.440130 -0.091137 0.506500 -0.388360 0.364720
thirty -0.493640 -0.255420 -0.199540 -0.415910 -0.170010 -0.074919 -0.288590 -0.257370 0.099416 -0.093775 0.305050 -0.308700 -0.345840 0.139850 -0.721370 0.063009 -0.073789 -0.057227 0.296780 -0.108720 -0.023643 1.997700 0.547870 -0.478300 -0.238850 -0.326270 0.574710 -0.062465 0.041676 0.286730 0.359620 -0.209720 0.336320 -0.145150 -0.412790 0.302120 -0.527380 -0.001620 -0.265690 0.051340 0.108940 0.294240 0.281850 -0.444740 0.151630 -0.006758 0.373830 -0.057548 -0.007090 -0.258670 -0.198880 0.221380 -0.001133 -0.055214 0.397010 0.391720 0.218380 0.005548 -0.234240 0.105420 -0.036231 -0.134990 -0.110780 -0.223400 -0.356910 0.317590 -0.092062 -0.118610 -0.205830 -0.712990 -0.288470 -0.432810 0.692000 -0.029373 0.814640 0.249610 0.583470 0.360880 0.292660 0.063329 0.550880 0.419520 -0.308860 0.536280 0.065743 0.073691 -0.269990 -0.362690 -0.156060 0.349930 0.080579 -0.067412 0.363880 -0.310330 0.429340 0.198710 0.232510 0.023191 -0.328140 0.105810 0.340530 0.008648 0.466270 0.105830 0.037181 0.199840 -0.122520 0.323010 0.008245 0.315320 0.179150 -0.237170 0.101810 0.200950 -0.254270 0.315320 -0.527970 0.070824 -0.182000 -0.324260 -0.466840 0.340380 -0.233730 -0.288510 0.147220 -0.792690 0.235470 0.039215 0.950730 -0.511110 -0.203260 -0.202720 0.278830 0.133520 0.042639 -0.086224 -0.302030 -0.232160 -0.235190 0.120680 -0.297320 -0.166710 -0.306610 -0.064342 0.543020 0.145050 0.075975 0.698650 -0.124190 0.015462 0.186690 0.072806 0.069573 -0.079645 0.236350 -0.121080 -0.022537 -0.280070 0.255610 0.124260 0.101010 0.433680 0.275860 -0.117180 -0.291510 0.213480 -0.385640 -0.080468 0.042800 0.078544 -0.233180 -0.108470 -0.325270 0.478410 -0.510980 -0.123530 0.021997 -0.305010 0.021403 -0.286090 1.125600 0.172580 -0.242210 0.027592 0.109410 -0.166770 0.400510 0.473910 -0.600890 0.066559 -0.331200 0.051334 0.246810 -0.240180 0.334200 -0.612510 -0.093189 0.141110 -0.314080 0.741180
enroute 0.090391 0.130230 0.246000 0.124330 0.250340 0.013394 0.287800 -0.235530 -0.236360 0.011619 0.017935 0.599410 -0.091656 -0.338210 -0.549650 -0.466060 0.442820 -0.537440 -0.063057 -0.079861 0.460110 -0.617150 -0.109920 0.577450 -0.337250 0.032895 -0.408540 -0.210900 0.498730 -0.025713 0.344490 -0.427330 -0.212160 0.237320 0.160320 -0.367570 -0.128580 0.272770 0.015513 -0.632650 0.239880 0.431900 0.260160 0.463160 -0.054766 -0.052397 -0.296700 0.049262 -0.714290 -0.093423 -0.025989 0.023621 0.179720 0.205450 -0.287480 0.035971 -0.456770 -0.111750 -0.193980 -0.038074 -0.339170 -0.361030 0.285680 0.121670 0.435690 -0.175200 0.562750 -0.464420 -0.104470 -0.482670 -0.878800 -0.164550 0.998610 0.117860 -0.236860 -0.449360 0.469000 0.506980 -0.576320 0.120280 -0.059958 0.211130 0.233860 0.153250 -0.163560 0.134220 0.561160 -0.244860 -0.670310 0.409820 -0.178230 0.379300 -0.039856 -0.355540 0.078853 -0.122380 -0.306270 -0.497420 -0.079775 0.318450 -0.217370 0.129970 0.139210 -0.096542 0.229150 0.222410 0.190590 -0.562120 -0.094015 0.151200 0.018864 0.244670 0.547990 0.308290 -0.056890 0.003682 0.216560 0.004447 0.266510 -0.878690 -0.144510 -0.190910 -0.082778 -0.167440 -0.196370 0.518110 0.270570 0.078073 -0.547470 -0.579230 -0.338030 0.687960 0.261310 0.238640 -0.236590 0.396920 0.043837 0.844690 0.139550 -0.051137 -0.216350 0.138280 -0.148240 -0.067766 0.098164 0.580350 0.286680 0.854730 0.203170 -0.157680 -0.277590 0.227840 -0.074416 -0.012543 -0.511080 0.096995 0.238620 0.317580 -0.399500 -0.064259 0.033926 -0.573120 0.152690 -0.365550 0.122150 -0.414060 -0.271090 -0.086654 -0.243710 -0.115710 0.446500 0.082495 0.202350 0.137990 -0.287220 0.430590 0.025894 -0.174040 0.652090 -0.164680 -0.346440 0.301460 0.033699 -0.195330 0.061557 0.348620 -0.348020 0.205770 -0.261530 0.023902 -0.152350 -0.134870 -0.539240 0.542540 0.277920 0.215570 -1.073700 0.010809 -0.028439 0.399260
1850 -0.149840 -0.086027 0.227100 -0.150090 0.130610 -0.170440 0.202580 -0.559690 0.395240 -0.335320 0.564790 -0.040074 -0.350760 0.242040 -0.196010 0.440230 0.257480 -0.165000 0.822160 -0.509000 -0.068292 0.417760 0.036717 0.084444 -0.076995 0.322500 -0.660680 0.077250 0.347370 0.736130 0.558890 0.073504 0.616960 0.141530 -0.020635 -0.112060 0.233930 0.209520 0.180310 -0.416800 -0.175450 0.366270 -0.353430 -0.441460 0.008384 -0.236810 -0.139190 0.480580 0.295130 -0.228800 -0.711650 0.519160 0.030880 0.229330 0.194070 -0.169400 0.002341 0.220570 0.405030 -0.157160 -0.331210 0.315760 -0.553680 -0.898560 0.118790 -0.093814 -0.775460 0.075482 0.399380 -0.070666 0.610820 -0.591520 -0.422220 0.203610 0.567600 0.351650 0.245630 0.557290 0.497720 0.467400 0.694680 0.346530 -0.582200 0.614470 -0.115200 0.195530 -0.306960 -0.491250 0.358660 0.803210 0.117310 0.411830 -0.124150 0.149030 -0.140670 -0.154470 -0.062104 -0.087120 -0.166890 -0.243090 -0.367560 0.399990 1.342000 -0.153450 0.067118 -0.610580 0.086746 0.039253 0.325190 0.111780 0.153750 -0.309310 -0.029209 -0.015787 0.257180 -0.282140 -0.609180 -0.133130 -0.285070 -0.398930 -0.651930 0.197430 -0.030140 -0.290360 0.427230 -0.585160 0.206630 0.331130 -0.365010 -0.610370 0.547960 0.064872 0.093036 0.097830 0.753620 -0.144700 0.030402 -0.368250 0.402290 0.381500 -0.488750 -0.336210 -0.483560 0.123740 0.311680 0.456180 0.168780 -0.044516 -0.339500 -0.223990 0.290520 -0.078377 0.062861 -0.965420 -0.235100 -0.210120 0.395300 -0.556540 -0.180200 0.001849 -0.104240 -0.292630 -0.675540 -0.315890 -0.453240 0.826610 -0.348580 0.205930 -0.387040 0.551970 0.034241 0.076619 0.135160 -0.404570 -0.187900 -0.684450 0.297300 0.156730 0.717420 -0.603830 0.933680 -0.092845 -0.554950 -0.119450 -0.380590 -0.119140 -0.241040 0.308820 0.156150 0.664130 0.128850 -0.072839 -0.182480 -0.424580 -0.004532 -0.037082 -0.565300 0.536200 0.724010 0.196470
ninth -0.332380 -0.226510 -0.518420 -0.209800 -0.236940 -0.056553 0.082751 -1.255600 -0.042795 -0.401960 0.000009 -0.332470 -0.661170 0.463260 1.544500 0.397670 -0.274840 -0.392050 -0.649600 0.200500 0.028725 1.952400 0.796510 -0.107790 0.263660 -0.204660 -0.444770 0.338390 -0.389190 -0.617280 0.238010 0.050799 -0.502100 -0.017691 0.072039 0.576990 -0.373260 -0.179880 0.641140 -0.755180 -0.670260 -0.931330 0.174430 -0.409530 -0.313810 0.789870 -0.125310 0.037553 -0.450630 -0.445830 -0.027212 0.427010 0.735810 0.523590 -0.054991 0.075128 0.274680 -0.124540 -0.288630 0.135570 -0.347180 -0.707820 -0.797190 0.242120 0.561040 -0.162870 0.177710 -0.489020 0.014444 0.100320 0.463990 0.395430 0.571060 0.425580 -0.185560 0.929810 -0.528700 0.781730 -0.167580 0.514160 0.668330 -0.062474 -0.538200 -0.190810 -0.314490 0.367960 -0.098677 -0.921100 -0.119520 0.578460 -0.822180 0.126130 0.597790 -0.131820 0.574840 -0.057911 0.060283 0.098819 0.946410 0.051478 0.258080 -0.330380 0.498760 -0.130900 0.443980 0.029292 -0.378430 1.172000 -0.312400 0.413830 0.304410 0.211400 -0.270960 0.135540 -0.542110 0.377120 -0.572910 -0.351900 0.241870 0.604870 -0.215060 -0.349640 -0.290110 0.432660 -0.123400 -0.667150 0.002911 0.060645 -0.047193 -0.137490 -0.080539 -0.035880 0.179720 -0.858190 -0.315850 0.175330 -0.090515 0.369780 -0.732730 0.216500 0.237720 -0.028204 -0.252620 -0.060109 0.175120 0.213260 0.104050 -0.243290 0.088226 0.546990 -0.140230 0.205410 0.106060 0.176480 -0.169510 -0.291680 -0.442550 0.362940 -0.274730 -0.053776 0.050633 0.197210 -0.550880 -0.053900 0.355990 -0.030840 -0.160790 -0.146080 -0.430860 -0.289070 0.103030 -0.451010 0.236460 0.462280 -0.167560 0.508670 -0.906350 -0.620840 0.644920 -0.842450 0.563480 -0.423350 0.444910 0.528490 -0.748190 -0.542620 -0.272920 -0.025448 -0.321130 -0.009841 0.190410 -0.538910 -0.062066 0.527360 0.014028 -0.321710 0.308710 0.331020 -0.441640 -0.308340
restriction 0.248030 0.659100 0.262390 0.215630 0.467360 -0.071710 -0.797820 -0.292010 -0.869590 -0.237830 0.360960 0.470120 0.462200 0.291010 -0.247920 0.118340 -0.195600 0.040315 0.385660 -1.308400 0.277260 1.526800 0.799810 0.188400 -0.731040 0.264790 -0.492500 0.440070 0.437000 0.008541 0.109100 -0.861440 0.433820 -0.067475 0.287770 -0.070819 0.447860 -0.160460 0.148310 -0.053410 0.855790 -0.220250 0.725600 0.275890 0.129470 -0.382340 0.032070 -0.134380 -0.269040 -0.419350 0.163330 -0.729450 0.008348 -0.457670 -0.012333 -0.397120 -0.084258 0.012676 -0.208300 0.208780 -0.522100 0.153180 0.445490 -0.315790 0.553710 0.139720 0.098043 -0.362300 0.291120 0.056697 0.580480 0.432190 0.062795 0.036770 0.233060 -0.362830 0.339270 -0.510030 0.241640 0.575100 -0.522300 -0.182320 0.094451 0.643610 0.440760 0.182870 0.218580 0.061033 -0.162330 -0.735400 0.311700 0.482730 0.602290 -0.000818 -0.077391 0.385900 0.229800 -0.265450 0.352830 -0.266390 -0.625270 -0.480090 0.230250 -0.545200 -0.306620 -0.030585 0.169180 -0.001115 0.403920 -0.088026 -0.182690 -0.227040 -0.207490 -0.736890 0.037656 0.231210 -0.013815 -0.419260 -0.307130 0.215170 -0.273970 0.122170 -0.065345 0.294940 -0.201300 0.646130 0.758860 -0.454290 -0.839140 0.056080 -0.618430 0.322370 0.358920 0.395140 0.246940 -0.034051 -0.652200 0.311410 0.261760 0.008855 -0.188040 0.459180 -0.120090 -0.143440 0.210140 -0.089517 -0.910720 0.001083 -0.195240 -0.406040 -0.655460 0.574680 -0.007574 0.587290 -0.247730 -0.122050 0.631530 -0.534390 -0.387410 -0.454020 0.285660 -0.816840 0.455260 -0.444520 -0.511330 0.269420 -0.365770 0.259390 -0.018606 0.923660 0.080897 0.473800 0.263630 -0.286120 0.055593 -0.364470 0.555810 0.380660 0.425570 -0.328450 0.459860 -0.426150 -0.344040 0.421360 -0.226980 0.552320 0.545210 -0.004597 0.458670 0.411660 -0.443080 -0.225390 0.792860 0.274030 0.168490 -0.028679 -0.041962 -0.071552 0.010601 0.032605
they 0.052800 0.134950 -0.382140 -0.279990 -0.383920 -0.084598 -0.372770 0.100460 -0.023454 0.712560 0.024259 0.281400 0.010209 -0.194170 -0.300180 0.207400 -0.181050 0.716110 -0.113110 -0.264120 0.176810 3.236600 -0.232900 -0.079990 0.134820 -0.224480 -0.117990 -0.092002 0.235520 -0.126080 0.125570 -0.215360 0.125870 0.049804 0.024991 -0.559340 -0.939240 -0.517970 0.421250 0.346520 0.198970 -0.014204 0.176520 0.431550 -0.389010 0.032722 0.952750 -0.246410 0.126990 0.241710 -0.249500 0.136630 -0.587020 0.531920 0.253640 -0.446310 0.071339 -0.107200 0.016232 0.283560 0.253550 0.360770 -0.066849 0.225950 0.266630 0.195800 -0.211020 0.399340 -0.006639 0.095334 0.462050 0.028948 0.202020 0.121700 -0.175800 -0.245260 -0.291050 0.153000 -0.081641 -0.152700 -0.061132 0.330110 -0.270520 0.243150 0.310770 0.245270 -0.553830 -0.569740 -0.055326 -1.110600 0.236580 0.092638 0.731680 0.085777 -0.247350 0.230100 0.049224 -0.100270 -0.122150 -0.323240 0.452690 -0.257500 -0.162780 -0.189480 0.230160 0.336190 0.110440 1.087900 -0.483410 -0.244210 -0.113290 -0.028835 0.197680 0.318680 0.147580 0.162300 0.071596 0.032118 0.072414 -0.167260 0.742610 0.127290 0.309700 -0.327650 0.126880 -0.698080 0.200570 0.249300 0.495280 -0.485600 -0.464470 0.415820 0.473380 -0.381780 0.453800 0.183980 -0.123770 -0.280230 -0.223480 -0.110580 -0.268950 -0.133580 0.219270 -0.463390 1.429200 0.675360 -0.173420 -0.467140 0.009023 0.099559 0.154380 0.442030 -0.498670 -0.061944 -0.003351 -0.175470 -0.170100 0.342890 -0.093336 0.289190 -0.325190 0.131840 0.001145 -0.084836 -0.265360 0.467920 0.239740 0.044068 -0.754860 0.308710 0.109760 0.039385 0.482020 0.053616 0.435540 0.057253 -0.564280 -0.335340 -0.032656 0.195870 1.266200 -0.371500 -0.746730 -0.190890 -0.230700 0.094298 -0.018306 0.055102 -0.028414 0.278910 -0.222750 0.256380 0.064459 0.031974 0.196010 0.004318 0.043765 0.427370 -0.206980 0.445110
first -0.149310 0.390570 -0.447910 -0.593900 -0.296100 -0.338660 -0.292350 -0.150730 0.138160 -0.149800 0.094097 -0.048769 -0.281470 0.092720 0.644800 0.176060 -0.113820 -0.014984 -0.090019 -0.080976 0.446370 2.893200 0.502050 -0.293540 0.208730 0.095421 -0.433960 0.302760 0.220590 -0.304460 0.230380 0.164460 0.142000 -0.513730 0.188590 -0.159100 -0.481580 -0.390900 -0.076000 -0.315830 -0.448270 -0.086741 0.173460 0.211350 -0.301030 0.618800 0.086297 -0.012145 -0.169640 0.215210 -0.458690 -0.101270 0.032923 0.598730 0.231130 0.210680 -0.228210 0.357940 -0.175560 0.296540 -0.141580 -0.164490 -0.629570 -0.215470 0.425180 0.045970 -0.131410 0.121800 -0.201830 0.073609 0.379590 0.127310 0.645430 0.284060 -0.128830 0.743290 -0.466830 0.091240 -0.232330 -0.187510 0.228730 -0.497600 -0.093254 0.364700 -0.064772 0.022081 -0.310800 -0.301880 0.186390 -0.252860 -0.290180 0.426170 0.141530 0.130100 -0.008504 -0.152250 -0.157410 -0.230840 0.426920 -0.034508 -0.189540 -0.125380 0.376860 0.075013 -0.098855 -0.519670 -0.132890 0.985480 -0.607200 0.184420 0.385670 -0.787190 -0.155180 -0.134910 0.035348 0.241440 -0.270580 -0.240450 -0.311950 -0.288450 -0.242920 -0.229580 0.463830 0.328870 0.122290 -0.481350 0.065069 0.357130 0.452630 -0.264850 -0.185660 -0.176490 0.489220 -0.592300 0.181950 0.317160 -0.186840 -0.111240 -0.787110 0.141030 -0.262740 0.087278 0.151890 -0.059592 1.354000 0.140640 -0.107300 -0.367370 -0.181520 0.063974 -0.219770 -0.001291 -0.237050 -0.214970 -0.117230 0.151020 0.144830 -0.022964 -0.069666 -0.307210 -0.153300 0.030555 -0.272950 -0.098790 0.047088 0.325000 -0.334720 -0.340770 -0.409040 0.369430 0.246340 -0.169500 0.545750 0.034947 -0.093106 0.504430 -0.965240 -0.225980 0.147200 -0.270240 1.463900 -0.184230 -0.053392 0.179260 -0.370890 -0.481830 -0.152330 0.424300 -0.152170 0.188970 -0.052393 0.200650 0.158260 -0.037378 -0.052740 0.199260 -0.266690 0.074758 0.232690 -0.026688
los -0.512970 0.383650 -0.711510 -0.483170 -0.351590 -0.393580 0.057441 -0.447500 -0.545220 -0.867010 -0.012401 -0.194880 -0.331500 0.743200 0.896510 0.480870 -0.149810 0.212260 -0.462030 -0.032135 0.726230 1.754600 -0.558160 0.521850 0.633280 1.251900 0.209900 -0.736620 0.709110 -0.085490 -0.392160 -0.326590 -0.295080 0.328380 -0.657550 -0.146820 -0.358880 0.079203 1.201100 -0.313990 -0.031114 -0.120100 -0.669320 0.145720 -0.124880 0.102610 0.368610 -0.305950 0.150780 0.062771 -0.194080 0.624150 -0.179270 0.988620 0.458140 -0.420030 0.106440 -0.402650 -0.538760 -0.041704 0.518700 0.250630 -0.494220 0.171010 -0.273340 -0.651450 0.763880 0.121010 0.659420 -0.229700 -0.337810 -0.174220 0.459010 0.211660 0.136510 0.361060 0.721060 0.421370 -0.071963 0.392910 -0.081727 -0.043424 -0.195850 -0.250120 -0.745990 0.445170 -0.580750 -0.138390 0.826500 -0.556080 -0.420780 0.692230 0.257700 0.059424 0.001923 0.728450 -0.885610 -0.281170 0.136250 0.635310 -0.010139 0.121640 -0.190880 -0.816180 0.402560 -0.586650 0.415360 1.490300 -0.707270 0.681000 0.460100 0.074415 0.423930 0.262710 -0.603760 -0.110920 0.300870 -0.384370 -0.580850 -0.254500 0.418290 -0.766860 -0.321200 0.604630 0.155750 -1.011700 -0.181340 -0.217610 0.408590 -0.419400 0.136680 -0.089293 0.103730 -0.167260 0.203900 0.116930 0.196830 -0.025267 -1.301600 -0.004127 0.692820 -0.593740 0.157880 -0.185080 0.727390 0.054069 0.684850 0.181340 0.007491 0.032597 -0.197660 0.418230 -0.245880 -0.461660 0.292710 -0.191030 -0.200430 -0.209570 0.176350 -0.350750 -0.332500 -1.247300 -0.603120 0.581710 0.443830 -0.078349 0.835570 0.098440 -0.477550 0.555180 0.198660 0.227390 0.615760 0.846300 0.016812 0.322880 0.686200 1.128400 0.166290 0.493270 -0.325230 0.823670 0.048620 -0.136030 0.195330 0.059018 0.075673 0.152010 -0.662680 0.469220 -0.844950 -0.122550 -0.394230 -0.533470 -0.434320 0.801120 -0.467370 -0.162750 0.011510 0.402830
a 0.241690 -0.345340 -0.223070 -1.290700 0.252850 -0.551280 -0.080336 -0.008177 0.311360 -0.451010 0.246610 0.364410 0.943360 -0.035420 0.780480 -0.397650 0.311250 -0.177430 -0.419890 -0.378150 0.672300 3.171600 0.032496 -0.031640 0.580680 -0.444580 -0.055612 0.180520 0.285720 0.095870 0.214370 0.049731 0.187200 0.119140 0.027408 -0.806080 -0.308350 -0.897370 -0.197720 0.026741 -0.387650 0.116590 -0.201100 0.201010 -0.079133 -0.050954 0.006019 0.334700 -0.211180 0.074042 -0.281410 -0.059615 -0.352960 0.647480 0.053908 -0.313760 -0.366220 -0.277550 0.022676 0.048811 0.143120 -0.185800 -0.569640 -0.541190 0.186160 0.188540 0.275210 -0.178350 -0.374380 0.121090 0.001861 -0.009213 0.101860 0.098081 -0.372450 0.664150 0.057366 -0.438450 -0.405250 -0.559590 -0.113430 -0.549870 -0.263210 -0.284710 0.144110 0.103600 -0.321980 -0.215300 0.986680 -0.419370 0.311900 0.333800 0.160180 0.331370 -0.025494 -0.037880 -0.120480 -0.121750 0.094766 0.261580 0.029931 -0.296250 0.434010 -0.036536 -0.428520 -0.396380 -0.249730 1.101800 -0.228120 0.243240 0.083857 -0.488810 -0.213160 0.040249 -0.405160 -0.124110 -0.197280 -0.736960 -0.445820 -0.449920 -0.073707 -0.164540 0.160110 -0.419520 0.414170 -0.572770 0.513670 0.081118 0.029288 0.353090 -0.108030 0.137020 0.388280 -0.288130 0.682030 0.174120 -0.088540 -0.297850 -0.284550 0.135700 0.152320 0.220370 0.688120 -0.131000 1.819700 -0.451530 0.395530 -0.608170 0.336980 0.110900 -0.284760 0.304610 -0.216060 -0.058111 0.441720 -0.242310 -0.127580 -0.048793 -0.154950 -0.854910 0.092912 -0.060809 0.029073 -0.387350 -0.070853 -0.659750 -0.381570 0.501700 -0.735600 0.415210 0.213280 -0.337790 0.669020 0.424860 -0.121480 -0.010626 0.127450 -0.135610 0.234230 0.351100 1.284100 0.129820 0.213570 0.328570 0.165670 -0.214580 -0.442750 0.328500 0.180010 0.064865 -0.358800 -0.014226 0.311250 -0.220490 0.032829 0.385250 -0.105120 0.278010 -0.101710 -0.071521
orlando -0.466430 -0.014989 -1.308300 0.115230 -0.143890 -0.075291 -0.072001 -0.489480 -0.226980 -0.274830 0.166400 0.351320 -0.370910 0.702940 -0.030074 0.250530 0.295140 -0.104470 -0.470430 -0.375420 0.373230 0.887760 -0.088838 0.799230 0.519770 0.311040 -0.462340 0.049041 -0.152740 0.067590 -0.198080 -0.061578 -0.260640 -0.428980 0.354510 -0.044134 0.187640 0.858200 0.397800 -0.263690 -0.833260 -0.603030 -0.104840 -0.021233 0.498800 0.382170 -0.068230 -0.274000 -0.343730 0.597580 0.144200 0.144790 0.129760 -0.355240 -0.526210 0.209010 -0.066559 0.194500 -0.183830 0.181440 0.357990 -0.418380 0.231360 -0.481340 0.076317 -0.596270 0.105610 0.146910 0.337630 0.530560 0.399380 -0.168440 0.389510 0.426420 0.198800 -0.322440 -0.355440 -0.265610 -0.164260 -0.236940 -0.457380 0.046715 0.054926 -0.310270 -1.320900 0.326150 -1.013800 -0.075660 -0.423560 -0.062258 -0.107820 0.161330 0.746530 -0.273480 0.549750 0.134150 0.340630 -0.451510 -0.174940 -0.219380 0.403790 0.134630 -0.297750 -0.500300 -0.023987 -0.633630 0.229630 2.080200 -0.801550 0.475800 0.273420 0.012557 -0.190840 0.213900 -0.054710 -0.141860 0.376610 0.396580 0.093190 0.473090 -0.491250 -0.095474 0.839510 0.581740 0.164680 -0.715800 -0.963350 0.363280 0.209130 0.188000 0.588290 0.001540 0.117820 0.023069 -0.074120 0.062609 0.051139 -0.527020 -1.050300 -0.109980 0.079797 -0.023987 -0.300430 0.108480 0.383630 0.337070 0.256280 0.641900 0.183450 0.273290 -0.529870 -0.228000 -0.405790 0.237390 0.072413 -0.681900 -0.122120 -0.198480 0.127900 -0.465120 0.068877 0.194790 -0.070888 -0.042289 0.482470 -0.071286 -0.055624 0.287750 -0.495210 -0.446960 0.410560 -0.141080 0.063117 0.578800 0.748820 0.330530 0.277810 0.217310 -0.197830 -0.030301 -0.556920 0.525680 0.148370 -0.234170 -0.073115 -0.138100 -0.775580 -0.538080 -0.559670 -0.445620 -0.102540 0.074423 -0.883170 -0.485620 -0.988850 0.015113 -1.012300 0.193730 -0.256990 0.303500
does 0.716810 0.460640 0.297550 0.139160 0.328370 0.231850 -0.609980 0.297750 0.175010 -0.008226 -0.128500 0.500590 0.103310 -0.006312 0.179020 0.030296 -0.206980 0.546280 -0.273070 -0.114930 0.261740 2.834200 -0.248320 0.101260 0.276190 0.086305 0.183010 0.044760 -0.228790 -0.413540 -0.202520 -0.392170 -0.250940 -0.153800 0.097884 -0.327700 -0.565930 -0.235680 -0.125230 -0.055196 -0.194570 -0.182510 -0.031082 0.407170 -0.107940 0.242250 0.389100 -0.347450 0.291130 0.009309 0.275190 -0.418360 -0.331020 0.052517 0.372990 0.050667 0.181270 -0.198980 0.159820 0.461740 0.275200 -0.016574 0.031551 -0.168790 0.041608 0.169250 0.036533 0.452370 0.541630 0.611360 0.952950 0.619600 -0.327490 0.191410 -0.471930 -0.032938 -0.538590 -0.559850 -0.070803 0.105920 0.051098 -0.027236 0.468250 0.054141 0.150030 -0.534200 -0.763460 -0.084016 0.434740 -1.406200 0.436270 0.307880 0.217890 0.126180 -0.105250 0.339460 0.121240 -0.006852 -0.145560 -0.213540 0.065077 0.718410 -0.124970 -0.054642 0.117640 -0.359150 -0.506020 1.638500 -0.161760 -0.118140 0.340590 -0.245250 0.064217 -0.248020 -0.300290 -0.318550 0.366230 -0.294930 -0.317120 0.260580 0.307410 0.151900 0.244990 0.052541 0.027422 0.214440 0.194790 0.049612 0.146420 -0.063942 -0.466520 0.420490 -0.056180 -0.199100 -0.118730 -0.062655 0.406770 -0.270520 0.114260 -0.339200 0.518130 0.237800 0.379170 -0.091582 1.297600 0.229850 0.063646 -0.488430 -0.087555 -0.019536 0.472680 0.235700 -0.193340 0.400430 0.207590 -0.302650 -0.183400 0.093473 -0.159940 0.365970 -0.020375 -0.155130 0.277200 -0.290380 -0.009470 -0.228060 -0.155790 0.153490 0.137770 0.271300 0.096412 0.266560 0.030009 0.099500 0.050533 -0.000084 -0.186430 0.418810 0.354110 0.319290 1.074900 -0.453980 -0.160790 0.252650 -0.050953 -0.104060 0.238080 -0.029844 0.425470 0.062068 -0.315810 0.052980 0.055991 0.025938 -0.184360 -0.157650 0.100450 0.255630 0.044591 -0.327510
air 0.215190 -0.087177 0.359170 0.192440 0.118050 0.131600 -0.751410 -0.427520 0.470240 0.095166 0.242320 -0.195850 -0.536510 0.340560 0.730900 0.122750 -0.257140 0.678650 0.148150 0.004289 0.274250 2.191500 0.672480 -0.101590 0.382770 -0.080585 -1.236300 0.171570 0.152130 -0.211610 -0.152460 -0.278760 -0.307890 -0.203380 0.125630 0.476170 -0.796820 0.241440 0.148670 -0.012555 0.473820 -0.086014 -0.332170 0.536100 0.097862 -0.422030 0.248810 -0.541040 0.305260 0.343770 0.403310 -0.511780 -0.729900 0.356460 -0.464980 -0.183600 0.237620 0.325270 -0.742490 -0.268720 0.100030 -0.336750 -0.118450 0.807530 0.312450 0.055886 -0.035098 -0.745490 0.198970 -0.919970 0.019984 0.446980 0.849120 -0.159890 0.005900 0.628990 0.480910 -0.236350 -0.189830 -0.753870 -0.808530 -0.068783 0.518690 -0.135290 -0.125610 -0.240220 0.275200 0.002301 0.657700 -0.521090 -0.204980 -0.011669 0.111010 -0.140290 -0.145390 0.503690 0.467040 -1.273100 -0.170850 -0.311170 -0.189300 0.240140 0.636320 0.142620 0.145100 -0.775350 0.136920 1.176500 -0.403260 0.362300 0.168930 -0.226260 0.552150 -0.134610 0.136850 -0.747090 0.121580 -0.532760 0.005982 -0.042072 0.644360 -0.371300 0.433940 -0.288320 1.277800 -0.721640 -0.176440 0.628470 0.530180 -0.942100 0.076576 0.722900 -0.156050 -0.702830 -0.655200 0.916300 0.135360 0.399080 0.036460 -0.014459 0.140360 0.267240 0.389980 -0.215420 1.375800 -0.246630 -0.215410 0.474980 0.158510 -0.012504 0.005697 -0.450670 0.664080 0.500710 0.371130 -0.211210 -0.122110 0.930160 -0.037547 -1.323600 0.476250 -0.056503 -0.435400 0.481790 0.594460 0.158060 -0.244090 0.636020 0.253690 0.323750 1.081900 0.534530 -0.527650 0.519250 -0.342790 0.337720 -0.382240 -1.045500 -0.618240 -0.307400 0.894520 -0.568010 -0.515420 0.248000 -0.308250 0.286870 -0.924250 -0.114620 -0.694460 0.381820 -0.687050 -0.274210 -0.122570 0.180200 -0.192170 0.654680 0.229130 -0.074646 0.156530 0.488470
offer 0.714130 0.475530 0.117620 0.146670 0.718100 -0.218140 -0.144610 0.080018 -0.263540 0.379110 -0.494880 0.193330 0.527590 -0.312450 -0.075454 -0.585080 0.052545 0.677380 0.119500 -0.179390 0.242310 2.796200 -0.664380 -0.479600 0.036845 0.342750 0.005634 -0.123450 0.189830 -0.660690 -0.386170 0.058116 0.043685 -0.413660 0.304170 -0.530340 -0.283510 -0.571630 -0.164210 0.294760 -0.140630 -0.181090 0.018046 -0.163370 -0.325200 -0.274040 0.761190 0.287450 -0.262600 -0.476390 -0.011750 -0.395540 -0.103890 0.496570 0.337130 -0.128320 -0.074156 0.546360 0.009240 0.197640 0.711400 -0.131180 -0.265760 0.066695 0.169640 0.026995 0.159040 0.673820 0.583130 0.356600 0.325730 -0.007066 0.063111 -0.389010 0.562390 0.944950 -0.218020 -0.538920 -0.658170 -0.448290 -0.195070 -0.033858 0.219430 -0.069405 0.083965 0.209670 -0.228790 -0.794970 0.083145 -0.470010 0.790870 0.002050 0.605980 0.065466 -0.371370 -0.459730 0.100000 0.279150 -0.801550 0.126350 0.331410 0.265490 0.013488 0.266500 0.166330 -0.068366 0.126760 1.039800 -0.287450 -0.570410 -0.731240 -0.625730 0.226570 0.146490 -0.206070 -0.190950 0.214040 0.230120 0.186850 -0.062963 0.214720 -0.218870 -0.283260 -0.212470 -0.153320 -0.358860 -0.437970 -0.033307 -0.037564 -0.064970 0.038002 0.663420 -0.251430 -0.119790 -0.323810 0.717510 -0.485570 -0.406820 0.910760 -0.211800 -0.151640 -0.418490 -0.004519 0.202690 0.515000 0.188550 0.277940 -0.468030 -0.289710 0.245560 -0.186810 -0.226080 0.040017 0.330210 0.109180 -0.123020 0.054653 0.003068 -0.197330 -0.306410 -0.396580 0.156220 0.018942 0.291850 0.408890 0.103720 -0.112040 0.041561 -0.357310 0.893570 0.264720 -0.130410 -0.108500 1.127100 0.475870 0.066977 -0.358790 -0.447850 -0.218890 0.268650 0.949680 0.003382 0.376300 -0.388340 -0.059170 0.282020 -0.167660 0.105900 0.066596 0.232770 -0.330780 -0.045661 0.134920 -0.303270 0.068234 0.136330 -0.902300 -0.310720 0.061376 -0.015203
k 0.313390 0.242570 0.114600 0.588250 -0.144930 -0.165930 -0.266190 -0.553080 -0.524490 -0.192580 -0.653380 0.061758 0.024349 0.089927 0.126170 -0.298430 0.271120 -0.100080 -0.037180 -0.088584 -0.372240 1.508000 -0.387200 -0.349310 0.608790 0.001077 -0.167790 0.374000 -0.308690 0.715580 -0.558930 0.991330 -1.205400 -0.820820 -0.297070 -0.192330 0.082779 -0.861110 0.231710 0.424860 -0.077783 -0.514690 0.318660 0.456430 -0.549000 -0.258370 0.445210 -0.504760 0.171340 -0.530910 0.386020 0.190260 0.382630 0.036102 0.236620 0.387110 -0.297450 0.075673 -0.393280 -0.382420 0.159160 0.052235 -0.615100 -0.383900 -0.295480 -1.119400 0.010327 -0.227590 1.141400 0.750210 0.540320 0.567070 -0.614410 -0.527590 -0.100200 0.572060 -0.187000 -0.542010 -0.553800 0.100790 -0.192610 0.374460 -0.616280 0.900970 0.552580 -0.282510 -0.428510 0.449560 0.666060 0.285690 -0.153470 -0.048446 0.285280 0.015857 0.522570 0.033662 -0.018425 0.631870 0.122250 0.014285 0.138680 0.056666 0.556680 -0.314910 0.415560 -0.494070 0.352730 0.081533 -0.309190 0.572050 -0.549020 0.332500 -0.218180 -0.064456 -0.283110 0.356720 0.974650 0.105320 0.643480 0.507570 -0.060221 -0.030170 0.269980 0.358460 0.011603 -0.725650 0.404770 0.399030 0.140250 -0.204390 0.166460 -0.978800 0.012159 0.534960 -0.425200 -0.430020 -0.428160 0.386750 0.386650 -0.056207 -0.088862 0.345150 0.372340 -0.253090 0.740060 0.144740 -0.178010 0.673600 -0.628450 -0.250240 -0.136320 0.988210 -0.122880 -0.107880 -0.214180 0.179080 -0.062706 -0.464300 0.101890 -0.897570 -0.247180 0.423600 0.529840 -0.626400 -0.683470 0.578880 -0.108090 -0.560290 0.454700 0.517280 0.136940 0.708490 0.493150 0.031789 0.036570 -0.044353 -0.294500 0.067715 -0.007805 0.469990 -0.248880 -0.738240 -0.026484 0.396970 0.613910 -0.368140 -0.203030 -0.172120 0.162700 -0.520910 -0.960570 -0.140010 0.114190 0.248260 0.185050 0.068961 0.666150 0.477160 0.476120 0.184760
1991 -0.606710 -0.209600 -0.340090 -0.188270 -0.500790 -0.263800 0.069123 -0.223460 0.113030 -0.027479 0.154560 0.038665 -0.335750 0.080593 0.304460 0.200810 -0.027095 0.325110 -0.394380 0.398770 0.508210 2.589800 0.568490 -0.258460 -0.205910 0.738200 0.122900 -0.182190 0.425730 0.181210 -0.290700 0.093199 0.301050 -0.534260 -0.411700 -0.156220 -0.355860 -0.084414 0.443950 -0.019766 -0.151630 0.000993 -0.877730 0.177980 0.173700 0.135310 0.053368 0.340410 0.325640 0.195830 0.192070 0.109050 0.200730 0.144630 -0.330840 -0.676030 -0.085087 -0.120490 -0.365200 0.120720 0.302040 -0.236960 -0.324470 -0.296660 0.680690 -0.293860 -0.161080 -0.093308 0.006677 0.117530 -0.210230 0.429580 0.691170 -0.121840 0.192050 0.095970 0.723930 0.313840 -0.327870 -0.272480 -0.432370 -0.268970 -0.598990 0.500280 0.095232 0.071588 0.037757 -0.023374 0.439180 0.491400 -0.882670 -0.429450 0.607780 0.132800 -0.457670 -0.852110 -0.468070 0.024522 0.169590 -0.422660 -0.574060 0.726180 0.097031 -0.010675 0.180560 -0.423790 0.065871 0.241500 -0.176040 -0.062030 -0.084817 -0.031337 -0.345460 0.742080 -0.177200 -0.165790 -0.347880 0.439590 0.286010 -0.404390 -0.716480 0.005314 0.607270 0.175970 0.328130 -0.979780 0.035426 -0.036314 0.517970 -0.195410 -0.352040 -0.036088 0.252180 0.110980 0.551040 -0.013341 0.242250 0.151370 -0.661020 0.211890 0.486930 0.281880 -0.013988 0.175550 0.437460 -0.245810 -0.218090 -0.215770 0.214960 -0.069398 0.210740 -0.490280 -0.140590 -0.173090 0.315440 0.409000 -0.335260 -0.012507 0.322020 -0.449290 -0.165610 -0.194140 -0.673310 -0.150040 -0.264450 0.273700 -0.031577 0.149910 0.151180 0.379640 -0.108370 0.142110 0.174230 -0.472570 0.043891 0.419890 0.123400 0.184530 -0.272750 0.028744 1.339800 0.076257 -0.491120 0.373920 -0.423950 -0.683520 -0.013619 0.219040 0.294000 -0.009014 -0.344360 0.247530 -0.143600 0.052115 -0.020981 0.268870 0.107520 -0.284010 -0.095571 -0.574470
1700 -0.070374 0.252640 0.332350 -0.638790 0.538870 0.182870 0.049850 -0.105740 -0.101390 -0.029676 0.304890 -0.123380 -0.042760 0.438380 -0.259830 0.486180 0.207530 -0.013793 0.268070 -0.625420 -0.072482 0.384950 -0.606260 -0.062217 -0.101380 -0.046961 -0.892860 0.748220 0.235870 0.338770 0.294590 0.608210 0.138740 -0.185390 0.452590 0.080629 -0.187820 -0.420420 0.231360 -0.123150 -0.078709 -0.075828 0.134450 0.138630 -0.148250 0.712340 0.043642 -0.004809 -0.132220 -0.948350 -0.714400 -0.071733 -0.136110 0.704300 0.479500 0.145830 0.125420 0.384280 0.031499 -0.519500 0.458840 0.194980 0.754570 -0.509920 -0.428990 -0.275920 -0.451850 0.000854 0.803150 -0.012219 -0.081126 -0.212160 -0.306560 1.084100 0.731960 0.385650 -0.195340 0.393590 0.156450 -0.216970 0.503850 0.076779 0.069065 0.458260 0.044520 0.583800 0.257540 0.211430 -0.109350 0.343870 -0.476440 -0.033117 -0.171450 0.368110 0.121360 0.372590 0.318660 -0.269760 -0.102580 -0.626740 -0.493780 0.037194 0.761180 0.105770 -0.414860 -0.047352 0.447580 -0.430310 0.139530 0.363600 -0.209360 -0.235750 0.079207 -0.171820 -0.271210 -0.339580 -0.115070 -0.008303 0.349350 -0.488460 -0.728250 -0.102360 0.192120 0.123740 1.215600 -0.587450 -0.111160 -0.137100 -0.295670 -0.417150 0.349900 -0.415820 0.113170 -0.166330 -0.226570 -0.397270 0.539720 -0.107080 0.202040 0.720130 -0.951420 -0.665210 -0.169220 -0.165900 0.187540 0.714170 -0.567090 0.290680 -0.925530 0.000222 0.530260 0.121860 0.239340 -0.289810 -0.386230 -0.536860 0.100260 -0.975390 0.153580 -0.386300 0.226740 -0.376830 0.100230 -0.238690 0.034174 0.941710 -0.087541 0.169230 -0.355080 0.249040 -0.003834 -0.510270 -0.371560 -0.765820 -0.070600 -0.146620 0.656830 -0.203540 0.318150 -1.123900 0.707120 0.263280 -0.614310 0.361000 0.524410 -0.098854 0.239970 0.219750 -0.357940 0.497710 -0.217910 0.235900 -0.437080 -0.574600 -0.344660 -0.307260 0.203750 0.054245 0.194780 -0.259620
hartfield -0.296550 0.045384 -0.277490 0.438370 -0.070484 0.306450 0.707300 -0.192550 0.306110 -0.375600 -0.810370 0.685260 0.280110 0.220430 -0.288760 -0.229740 -0.215970 -0.837940 -0.549310 0.294520 -0.689940 -0.524260 0.032523 0.109190 0.325560 -0.127840 0.395070 -0.092504 0.648480 -0.203310 -0.259410 0.119840 -0.321660 0.324220 -1.045300 0.092376 -0.388740 0.710900 -0.205580 0.137600 -0.800620 0.700280 0.477220 0.358450 -0.170330 0.382450 0.156570 -0.211910 0.867140 0.370780 0.028922 0.613780 0.297150 0.066699 0.476490 0.205070 -0.356220 0.029740 0.313870 -0.175490 0.222520 0.425510 0.312750 -0.724650 0.634150 0.044080 0.208100 -0.314660 0.352360 0.222490 0.873260 -0.262120 0.141600 0.208370 -0.336580 -0.161130 0.050932 0.389160 0.068921 -0.105170 0.454450 0.363350 0.594540 -0.278000 0.010180 -0.490290 0.098677 0.158670 -0.545370 0.313950 -0.233030 0.468320 -0.489030 -0.369760 0.396200 0.404990 0.470720 -0.380940 -0.095102 0.668180 0.057172 -0.472090 -0.248150 -0.375150 -0.411480 0.086995 -0.137930 -0.133560 -0.153840 0.105460 0.394340 1.116700 -0.010730 -0.441650 0.130060 0.406690 0.412570 0.503730 -0.321620 -0.183370 -0.187930 -0.493070 -0.131560 0.450130 0.483150 0.212900 0.367490 -0.385900 -0.954110 -0.548610 0.149060 0.461560 -0.388550 -0.187500 -0.054626 -0.110470 0.449170 -0.076356 -0.793480 -0.098443 0.063832 0.380980 -0.899960 0.594340 -0.446410 0.063370 0.328600 0.298510 -0.542680 0.112290 -0.891430 -0.348770 0.520360 -0.450660 -0.004616 0.207730 -0.141570 -0.180570 0.919830 -0.252880 0.046228 -0.289540 -0.520580 0.153080 0.353480 0.512780 0.913730 -0.118570 0.039669 -0.253620 -0.039249 0.361180 0.252530 0.258280 -0.639010 -0.235380 0.201580 0.575230 0.502250 -0.172680 -0.232930 0.125100 -0.354380 -0.092182 0.138050 1.041400 0.084800 0.115500 -0.004300 0.279010 0.004083 -1.163500 0.145480 -0.128210 -0.415740 0.428510 -0.668390 -0.159550 -0.542350 -0.235290
operating -0.300300 0.339420 -0.144260 0.363760 0.077579 -0.009483 0.235230 -0.128390 -0.552340 0.139440 0.146420 0.211500 -0.608030 0.347560 0.388680 -0.340640 0.520080 0.030983 0.198500 0.150760 -0.209490 2.249200 -0.081031 -0.342240 -0.614580 -0.077145 -0.295010 -0.135300 0.066241 -0.065641 -0.301480 -0.050447 -0.156760 -0.159170 0.582460 -0.096517 -0.607380 0.099886 -0.548470 0.042299 0.120110 -0.289130 -0.516980 -0.033647 -0.311270 0.066452 -0.379240 -0.314380 -0.257210 -0.205920 -0.670590 0.234970 -0.631930 -0.460100 0.423660 -0.250840 -0.867180 0.036206 -0.467110 0.202440 0.401170 -0.059671 -0.169720 -0.051460 0.355650 -0.137910 0.070063 -0.536060 -0.045733 0.079909 0.860170 0.587000 0.406760 -0.184980 0.032613 0.263820 0.421190 0.024436 -0.227490 0.129780 -0.656900 -0.118260 -0.099404 -0.251420 -0.155260 -0.352990 -0.513440 0.177140 1.168700 -0.029933 0.785810 0.086872 -0.140580 -0.213210 0.328660 0.886260 0.210380 -0.362460 -0.296870 -0.378010 0.577000 -0.395330 -0.857660 0.689540 0.186670 0.414570 0.057677 0.692600 -0.181640 0.196590 -0.178460 -0.064248 -0.055555 0.976200 0.077248 -0.759870 0.869510 0.113990 0.691960 -0.426080 0.108200 0.022988 0.826020 -0.254800 0.553200 0.044700 0.223420 0.481510 0.439680 -0.848420 0.335840 0.262910 0.233680 -0.251390 0.384360 0.090903 -0.130560 0.012300 0.514390 0.380270 0.177570 0.123140 0.048262 -0.219220 0.637020 0.233620 -0.410910 -0.048243 0.510390 -0.300420 -0.269960 0.103320 0.149950 -0.061052 0.664230 -0.688360 0.063276 0.631870 0.075224 -0.939980 0.331880 -0.337520 -0.388180 0.079679 -0.552290 0.349140 0.164220 -0.358520 -0.169710 0.824810 0.242840 -0.434320 -0.551660 0.216140 0.494580 -0.167420 -0.163370 0.251710 -0.192180 0.107630 1.271900 -0.208230 0.111510 0.535850 -0.131760 -0.319670 -0.301440 0.044331 -0.084924 0.388380 -0.176080 0.087139 0.205960 0.035910 0.321090 0.058371 0.037245 -0.245890 0.685120 0.173900
eleven -0.872590 0.026224 -0.673140 -0.359400 -0.119140 0.009579 -0.166150 -0.163240 -0.259610 -0.384460 0.342230 -0.241420 -0.383160 0.017818 -0.439030 -0.000749 -0.153380 -0.216010 0.190800 0.098707 0.150390 2.013800 0.607680 -0.667490 -0.060595 -0.292970 0.738070 -0.611550 0.293820 0.233790 0.507770 0.047796 0.158040 -0.111010 -0.244530 0.070132 -0.746850 0.232670 -0.044267 -0.233740 0.076099 0.181840 0.261420 -0.469810 0.227910 0.158400 0.036258 -0.090805 0.097491 0.106310 -0.407360 -0.129610 -0.099962 -0.008981 0.073656 0.513320 0.472150 0.078323 0.074755 0.297110 -0.150130 -0.141710 -0.261710 -0.073491 0.001605 0.323590 0.083308 0.093749 -0.200950 -0.371900 0.003536 -0.462670 0.414890 0.199760 0.570970 0.275940 0.218730 0.477890 0.590250 0.040236 0.296620 0.436550 -0.467680 0.201800 -0.086405 0.032026 -0.200810 -0.567520 -0.566650 0.445760 -0.342710 0.380530 0.225190 -0.354520 0.538700 -0.313820 0.285320 -0.129390 -0.184970 0.095797 0.244540 0.103740 0.254310 -0.042327 -0.114830 0.303630 0.120740 0.476590 -0.043726 0.457640 -0.055213 -0.429050 -0.357110 0.086545 -0.533850 0.460230 -0.546810 -0.155480 -0.181300 -0.637360 -0.268530 0.418000 -0.645880 0.055120 0.042536 -0.881260 0.093464 0.206620 0.944370 -0.685430 -0.090846 -0.274620 0.191990 -0.033338 -0.248120 -0.225590 -0.694860 -0.248540 -0.391330 0.351600 -0.075522 -0.237740 -0.458930 0.286610 0.488220 0.351020 0.074489 0.782560 -0.110450 -0.492270 0.254370 -0.086424 -0.081049 -0.185680 0.205920 -0.075553 -0.066942 0.020914 0.555220 -0.248710 0.192360 0.333980 0.201050 -0.119740 -0.011609 0.516990 -0.036366 0.048994 0.186700 0.218210 -0.424850 -0.050462 -0.321380 0.284910 -0.149590 0.049460 0.071181 -0.404770 -0.157340 -0.578540 0.992360 -0.118550 -0.081349 0.036605 -0.177410 -0.474870 0.350670 0.326450 -0.298420 0.107970 0.076674 0.305820 0.256680 0.140490 0.441770 -0.067760 0.161640 0.132370 -0.029067 0.335430
december -0.611970 0.034239 -0.824740 -0.824270 -0.106320 -0.427600 0.798970 -0.574070 0.617040 -0.044105 0.158790 -0.230700 0.047768 0.078866 0.253340 0.147970 0.055787 0.547070 0.103290 -0.171710 0.301840 2.641800 -0.062585 -0.119730 0.074746 0.777060 -0.607630 0.201270 0.136460 0.889200 -0.271480 -0.038829 0.062790 0.110900 0.474430 -0.181900 -0.447650 -0.348140 -0.105600 -0.075533 -0.051451 -0.042567 -0.464450 -0.214450 0.501190 -0.010378 -0.282020 0.154540 0.305730 0.350380 -0.032807 -0.172010 -0.231520 0.442200 -0.541000 -0.446290 -0.018931 0.160040 0.349610 -0.321150 0.106960 0.165100 -0.144170 -0.657880 0.310870 -0.268210 -0.213580 -0.406060 0.321380 0.245100 0.236310 0.079675 0.146030 -0.205090 0.550640 0.447380 0.477710 0.332780 0.075130 0.357670 -0.380720 0.168120 -0.521000 0.051568 -0.119730 0.064006 0.049337 -0.441510 0.314790 0.549520 -0.317770 -0.216520 0.415950 -0.226150 -0.561860 -0.308190 -0.276470 -0.312090 0.226540 -0.709330 -0.243760 0.232950 0.801060 -0.098949 -0.270550 -0.087622 0.023930 0.669490 -0.211820 -0.070820 -0.034042 -0.523810 -0.152910 0.227040 -0.354180 -0.476640 -0.405230 0.292360 0.488440 -0.703370 -0.371660 -0.142410 0.442880 0.110850 0.848070 -0.936100 -0.077464 0.216400 0.314350 -0.320640 -0.080448 -0.172010 0.157640 -0.360590 0.498210 0.492800 0.079908 -0.338480 -0.233130 0.497150 -0.058693 0.126950 0.124030 -0.174730 0.628550 0.173970 -0.045022 -0.587530 0.092894 -0.291530 0.426160 -0.043832 0.173840 0.072670 -0.250070 0.068486 0.282460 0.359200 0.240460 -0.658990 -0.068596 -0.345980 -0.563870 -0.009358 -0.363790 0.621040 0.047460 0.059164 -0.046553 0.643540 0.352850 -0.292740 0.367180 -0.550960 -0.018668 0.465590 -0.096970 0.144430 0.170750 -0.485500 2.141400 -0.090682 -0.503030 -0.030766 -0.381440 -0.172880 -0.183560 -0.045446 0.237060 -0.131160 0.294050 -0.026460 -0.708100 -0.167530 -0.419920 0.578040 -0.173790 -0.598610 0.162120 -0.397650
say 0.132060 -0.002471 -0.030482 -0.055545 0.025463 0.163590 -0.868150 0.605500 0.187830 0.544910 -0.098456 0.091655 -0.025677 -0.418590 -0.209310 0.206140 -0.512530 0.515580 -0.669880 -0.120180 0.003635 2.953700 -0.605320 0.195240 -0.019045 0.214040 0.036653 -0.056290 -0.084919 -0.329040 -0.298370 -0.193680 0.004315 0.283310 -0.118210 -0.131740 -0.574490 -0.331840 -0.202450 0.573510 0.150190 -0.330740 -0.150420 0.198190 -0.047104 0.231450 0.520150 -0.293250 0.037079 -0.093815 0.436530 -0.054696 -0.249960 -0.069635 0.314510 -0.549410 0.038272 -0.153060 0.222620 0.451130 0.563860 0.531580 -0.168830 0.042653 0.405480 -0.092491 -0.097697 0.343340 0.502440 0.063467 0.219890 0.307140 0.110750 -0.034070 -0.198040 0.142850 -0.537550 0.212810 -0.275340 -0.294810 0.115510 0.331550 -0.143620 0.118160 0.023351 -0.066761 -0.343750 -0.433410 0.146560 -1.234200 0.861180 -0.107260 0.385480 -0.499750 -0.370360 0.524400 0.207930 0.045930 0.026577 -0.310370 0.391280 -0.160150 -0.196810 -0.228100 0.428850 0.058081 -0.066200 1.475100 0.022430 -0.323710 0.512640 -0.173620 0.257180 0.280630 -0.053399 0.051500 0.121360 0.005759 -0.612220 -0.003000 0.293240 -0.012962 0.311130 0.106800 0.365810 -0.032831 0.196610 -0.057368 0.444340 -0.020766 -0.443820 0.222520 -0.204860 -0.137890 0.002972 0.031372 0.093966 -0.038336 -0.160730 -0.286730 -0.223220 0.167880 0.491110 -0.458860 1.304600 0.374790 -0.026685 -0.653410 0.326560 0.349010 0.283850 0.408690 -0.117710 0.141710 0.321560 -0.229660 -0.122210 0.146340 -0.124880 0.042986 -0.458070 -0.081315 0.332470 -0.201520 -0.565090 0.150310 0.236150 0.408230 -0.206880 -0.305140 0.239830 0.231160 0.102350 -0.092463 0.154520 -0.652150 -0.360760 0.095757 0.360240 0.394340 0.951180 0.124550 -0.282040 -0.012712 -0.126470 0.055127 -0.021180 0.491470 0.269160 0.179460 -0.769920 0.382440 0.160850 0.090452 0.279350 -0.121670 -0.332300 0.286700 0.020140 0.525110
staying 0.001321 -0.388710 0.134090 0.027768 -0.517220 -0.039284 -0.095553 -0.225640 0.417470 0.714880 0.174380 -0.187560 0.062573 0.362150 -0.055966 0.728380 0.161320 0.217860 0.110690 -0.257030 -0.054443 2.000900 0.323510 0.211970 0.057287 0.046132 0.288620 0.149520 -0.135110 0.086729 -0.093882 -0.600370 -0.228030 0.583360 0.109620 -0.005524 -0.327430 0.009473 0.317870 0.479350 0.185170 -0.087614 -0.280820 -0.229820 0.088527 0.116490 0.147950 -0.011454 0.011669 0.190460 -0.243980 0.129290 -0.193540 0.185180 -0.342400 -0.437030 0.228850 -1.018700 -0.316690 0.246080 0.050821 -0.344870 -0.309160 0.413810 0.007324 -0.371450 -0.325490 0.146420 0.083495 0.159220 0.093606 -0.170820 -0.057828 0.381670 0.161460 -0.232990 -0.553780 -0.338090 0.193280 0.346350 -0.638460 0.345730 -0.204020 -0.496420 0.272690 0.329060 -0.042090 -0.416970 -0.293310 -0.464860 0.311830 0.253500 0.136800 -0.819650 0.170250 -0.134350 0.200970 0.214970 -0.217210 0.081772 0.515130 0.254530 -0.713660 -0.222800 -0.160270 -0.206910 0.187840 0.227690 -0.276830 0.136210 -0.344100 -0.486210 0.068993 0.321070 -0.230860 -0.340200 0.150310 -0.061267 0.085741 -0.136540 0.232820 -0.503370 0.438970 -0.277390 0.355140 -0.114540 -0.113260 -0.555790 -0.170940 -0.385790 0.053468 0.046934 0.764820 0.244860 -0.316480 -0.214400 0.024114 0.102950 0.079489 0.246000 -0.361410 -0.120060 -0.023696 0.729670 0.945120 0.772000 0.806410 -0.131380 -0.404910 0.259560 0.249310 0.397980 0.091033 -0.112930 0.241950 -0.381080 0.097821 -0.330680 -0.100950 -0.312100 -0.193610 -0.247470 0.237220 0.096860 -0.111820 0.049495 -0.438630 0.305850 -0.476540 -0.079381 -0.522500 0.098635 -0.132350 0.374570 0.244340 -0.123330 0.095911 -0.273870 0.607990 -0.264200 0.396600 0.026037 -0.177170 -0.129490 0.141330 0.032621 0.206480 -0.571650 -0.457730 -0.931210 0.053711 0.147730 -0.172930 0.162970 0.642890 0.218540 -0.194040 -0.004377 0.083658 0.120800
should 0.224290 0.475860 0.257340 0.067400 0.022324 -0.047525 -0.505550 -0.198060 0.330710 0.496730 0.115180 0.170230 0.106810 -0.122510 -0.016183 0.262400 0.069350 0.558730 0.188760 -0.471760 -0.021797 3.547300 -0.472590 0.220440 0.188750 -0.027051 -0.123750 0.048403 -0.052370 -0.149880 0.009282 -0.568850 -0.031940 0.016814 -0.100190 -0.094400 -0.554290 -0.528570 0.169280 0.173490 0.306110 -0.064092 -0.023236 0.076996 -0.328500 0.316750 0.737880 -0.283190 0.167440 0.018805 0.243680 0.041708 -0.471840 0.181850 0.289910 -0.438700 0.153840 -0.112590 -0.031507 0.067750 0.314680 0.246650 -0.079097 0.026306 0.069804 0.330460 -0.233140 0.664230 -0.001296 0.340890 0.540270 0.409150 0.065049 -0.020910 -0.546920 -0.049717 -0.514290 -0.234620 0.062650 -0.232080 -0.042685 -0.104100 -0.048625 0.105560 -0.119100 -0.136900 -0.218070 -0.375110 0.173010 -0.930870 0.488150 -0.318290 0.354630 -0.030166 -0.099404 0.077990 0.056948 0.334390 -0.264390 -0.387820 0.351850 -0.284430 -0.248130 -0.196810 0.302920 0.214950 -0.465810 1.165300 -0.299720 -0.782960 -0.190990 -0.209760 -0.056089 0.188970 0.179080 -0.079236 0.165390 -0.166220 -0.454770 0.147140 0.330060 -0.323590 0.433220 -0.065355 -0.219890 -0.245550 0.008431 0.196620 0.082926 0.189640 -0.069736 0.250790 -0.061044 -0.228410 0.102320 0.241990 -0.230840 -0.356450 0.228850 -0.315940 -0.150080 -0.007579 0.452650 -0.172040 1.193200 0.439210 -0.547200 -0.077007 -0.226700 -0.017086 0.163480 0.324480 -0.170110 0.304870 0.053904 -0.013270 -0.426280 0.244130 0.245070 0.390790 -0.215460 0.223870 0.493640 -0.267980 -0.009376 0.122890 0.085930 -0.184200 -0.016886 0.404640 0.079621 0.270220 0.210800 -0.324440 0.130810 0.086044 -0.579920 0.155780 0.315900 -0.158770 1.114800 -0.414320 -0.291720 -0.348320 -0.275000 0.062966 -0.038919 -0.072172 0.120980 0.270270 -0.452710 0.003451 -0.180920 0.025115 -0.241570 0.131580 0.398730 0.116690 -0.282460 0.231080
atlanta -0.470470 0.734530 -0.590110 -0.011280 -0.420540 -0.709600 -0.598990 -1.132600 -0.294080 0.067036 0.188940 0.216360 0.131940 0.543470 1.046100 0.598030 -0.574430 -0.329500 -0.629600 0.013339 0.149080 1.503700 -0.530520 0.576230 0.262850 0.243320 0.153850 -0.318560 -0.394180 -0.302720 0.112660 0.563840 0.087048 0.251630 0.127860 0.298550 -0.062449 0.727510 0.170800 0.636890 -0.268880 -0.638600 0.142550 -0.305120 0.222370 -0.120360 0.639000 -0.934080 -0.360130 0.303670 0.577620 -0.053963 -0.236450 0.209980 -0.055589 -0.769350 0.118900 -0.070326 -0.118170 0.424580 -0.047503 0.121930 -0.444690 -0.183890 0.298730 -0.718760 0.241630 -0.106030 0.564380 0.343620 0.431660 0.326280 0.612900 -0.313390 0.057496 0.712720 -0.305660 0.013552 0.393420 0.772800 -0.272650 0.272910 0.261750 -0.467880 -0.559220 0.163270 -0.610020 -0.036309 0.343660 -0.099711 -0.280310 0.021854 0.859570 0.902120 -0.088834 0.293530 0.114840 -0.658450 -0.572630 -0.147340 -0.009601 0.563360 0.296600 -0.146570 0.259520 -0.143270 0.004551 1.935200 -0.886910 0.335930 0.193880 -0.200010 -0.255080 0.465980 -0.800150 -0.429870 0.086866 0.711510 0.006109 0.830240 -0.454860 0.325050 0.517280 0.336600 0.227950 -0.420660 -0.399390 -0.230790 0.029188 -0.376090 -0.557180 -0.140630 0.354890 0.211790 -0.172120 0.236240 -0.070423 -0.154910 -1.032700 -0.025523 -0.277500 -0.618710 -0.527210 1.085100 1.174000 0.186360 -0.168450 -0.146330 0.386240 0.511930 0.015926 -0.071209 0.182160 -0.670890 0.117210 -0.639380 -0.185140 -0.792240 -0.721620 0.033728 0.358800 0.594420 0.193970 0.001957 0.210970 -0.293960 -0.153350 0.742990 -0.726310 -0.393780 0.054587 0.280440 0.239950 0.329830 -0.082888 0.640490 0.228530 0.296370 -1.074900 -0.288420 0.161390 -0.119570 0.157940 -0.686650 -0.153290 -0.567490 -0.457990 0.432170 0.126290 0.525500 -0.138840 0.595170 -0.195450 0.092978 -0.366270 0.009929 -0.942120 0.149030 0.633890 -0.065473
bay -0.559640 -0.374930 -0.882870 -0.320290 -0.811680 0.370560 0.306240 0.166380 -0.100260 -0.940170 0.378320 -1.160700 -0.559850 0.197030 0.080517 0.578590 -0.039368 -0.129130 -0.595300 0.064775 -0.190800 1.989000 0.438750 0.779120 0.188570 0.274190 -0.657700 0.200370 -0.441400 -0.500290 0.171000 0.420840 -0.891700 0.211760 -0.326290 -0.587940 0.173880 0.480080 -0.243340 0.086013 -1.087900 0.306090 0.117320 0.423710 -0.293000 1.304600 0.805990 0.275330 -0.160780 0.962020 0.504830 0.006989 0.091552 0.082745 0.065703 0.327570 -1.040800 0.271800 0.510940 0.681310 -0.452970 0.833150 -0.280280 -1.032700 0.315210 0.116910 -0.293090 -0.180930 0.559490 -0.808750 0.799310 -0.155830 0.207120 -0.304530 0.513980 0.175310 -0.072940 0.329320 0.452050 -0.162930 -0.383380 0.696990 -0.090688 -0.178570 0.149910 -0.157920 0.024085 -0.213170 0.365270 -0.495930 0.800690 0.574780 0.638480 -0.722600 -0.003401 0.050441 -0.256610 -0.064797 -0.650810 0.058442 0.216050 0.287730 -0.458330 0.656840 0.835670 -0.116550 -0.058943 1.155900 0.410520 0.177390 -0.370050 0.780690 0.385020 0.970710 0.340590 -0.088450 0.064485 0.336590 -0.183950 -0.260970 -0.292890 -0.728150 0.109260 0.176700 0.382090 -0.699130 0.468360 0.505350 0.309960 -0.116670 0.652640 0.273730 0.663000 -0.380040 0.028378 0.354490 0.024997 -0.244040 -0.110640 -0.167660 -0.312400 0.438630 -0.291780 -0.109540 0.533030 0.564310 -0.057326 -0.607230 0.563580 0.856300 -0.651450 0.840080 0.143040 0.406480 0.860570 -0.288610 0.042394 -0.032904 0.111090 -0.929500 0.423690 0.360220 -0.265810 0.045007 -0.068823 0.364120 -0.210950 0.544700 -0.627470 0.782570 0.118910 0.267290 0.494040 0.228900 -0.150570 -0.047089 -0.153760 -0.185410 0.270970 -0.300370 0.027782 0.317320 -0.072409 0.220040 0.219100 0.091647 -0.147110 -0.443780 0.081451 0.393690 0.336050 -0.415980 -0.103740 -0.698600 -0.914670 0.807290 -0.710490 -0.591290 0.266010 -0.349830
reaching -0.348470 0.057577 -0.823040 0.140100 -0.189670 0.461850 0.047092 -0.708850 0.287680 0.167480 -0.790050 0.211430 -0.494420 -0.338010 0.555960 0.243810 -0.587360 0.081196 0.337180 0.127340 0.203380 2.184300 0.155110 0.241910 -0.276710 0.212020 0.104310 0.734990 0.224570 0.307650 -0.194300 0.042514 0.380840 0.217340 -0.200130 0.494570 -0.703460 0.026199 -0.200290 0.181940 -0.490240 0.365760 0.188490 0.066369 -0.290480 -0.148560 -0.452520 0.422170 0.038580 0.344280 0.322030 -0.285920 0.197300 0.385890 0.378470 0.074157 0.006334 0.545980 -0.328750 0.428970 -0.240100 0.162090 0.117200 0.132090 0.653060 -0.268340 0.229230 0.383870 0.033956 -0.230610 0.284410 0.432680 -0.127420 -0.224120 0.166560 0.347970 0.252630 0.243740 0.210790 0.059314 -0.098454 -0.247430 -0.552560 0.429850 0.119440 0.416380 0.556400 -0.377280 0.424400 -0.211110 -0.380680 0.111990 0.541520 -0.813370 0.184660 -0.335890 0.408150 0.062904 -0.450740 -0.164980 0.349500 -0.211520 -0.020653 0.027518 -0.090860 0.009058 0.168470 0.763580 -0.759370 -0.056875 -0.280690 0.398680 0.997080 -0.006254 0.424140 -0.227190 -0.108040 -0.193720 0.520650 0.109310 0.117120 0.034313 0.012491 -0.350340 0.006548 -0.330790 0.093102 -0.434820 0.194120 -0.512650 -0.269370 0.463570 0.331010 -0.227950 -0.077942 0.128330 0.102380 -0.213420 0.219980 0.425470 0.051989 -0.167710 0.106430 0.787670 0.923600 0.292780 0.076163 0.158980 -0.380950 0.393830 -0.167940 0.525060 -0.137980 0.005721 -0.160440 0.117500 0.250800 -0.068961 -0.259310 -0.578120 0.138550 -0.299400 -0.105520 -0.000034 0.329000 0.220060 0.011295 -0.244120 -0.518970 0.352200 -0.282210 -0.301530 0.243750 -0.539960 0.007905 -0.597760 0.410860 -0.413660 0.098551 -0.606970 1.348300 0.527890 0.261990 0.706270 0.319040 0.277240 -0.011525 -0.218430 -0.498810 0.372540 -0.233400 0.407560 0.134440 0.210390 0.492650 -0.353810 0.186020 0.028493 -0.188570 0.033753
field 0.063778 -0.011142 -0.310120 0.375870 -0.346290 0.157070 -0.597310 -0.192220 0.481630 -0.191890 -0.582540 -0.044870 -0.579950 -0.246270 0.667000 -0.558890 0.350090 -0.372790 0.353210 0.669280 -0.052268 2.258300 0.103280 0.128850 1.395700 0.037106 -0.471690 -0.141850 -0.519480 -0.483260 0.297860 0.161850 -0.635500 -0.899420 -0.265020 -0.132300 -0.248240 -0.029996 -0.051624 -0.067061 -0.060041 -0.050105 0.369270 -0.048199 0.280460 0.539600 -0.018241 -1.101600 0.307220 0.395780 -0.201550 0.126370 -0.545540 0.294490 0.009786 0.582460 0.291730 0.265030 -0.429170 0.117280 -0.614110 0.009537 -0.456090 -0.467770 0.304340 -0.045164 0.022415 0.074248 0.108480 -0.350750 0.216150 -0.184940 0.305080 0.141870 0.103170 -0.427920 0.108800 -0.278900 -0.361960 0.005903 0.012751 -0.361720 -0.225860 0.165780 0.234650 0.051649 -0.404900 -0.404010 0.745410 -0.739170 0.182330 -0.742880 -0.064205 0.458920 0.187930 -0.039734 0.270110 -0.480610 0.773220 0.200620 0.244490 -0.456950 -0.002337 0.032462 0.297190 -0.639730 -0.170180 1.484900 -0.802860 -0.039065 -0.264680 -0.040766 0.181320 0.204480 0.089474 0.564940 -0.126770 -0.052276 0.187140 -0.285980 -0.000312 0.071341 0.353240 -0.168320 0.319040 -0.372950 0.051446 -0.165180 -0.005192 -0.058127 -0.395930 -0.198270 0.423520 -0.975180 0.043484 0.224600 0.223020 -0.386110 -0.259200 -0.029840 -0.412970 0.048034 -0.522280 -0.327050 1.342800 0.422600 -0.765710 -0.146880 0.236660 0.651200 0.170800 0.038222 -0.355880 -0.659890 -0.088287 -0.561770 0.295810 -0.399430 0.083823 -0.654720 0.696640 0.146270 0.702730 0.015125 -0.328280 0.204370 0.277740 -0.218400 -0.568950 0.965630 0.556730 -0.051603 -0.186290 0.111990 -0.052314 0.042746 -0.094990 -0.297190 0.001862 -0.136090 0.346490 -0.506500 -0.131950 0.018931 -0.169810 -0.492020 -0.416480 0.473140 -1.026500 0.237100 0.708180 -0.261770 0.769690 0.351510 0.080092 0.440520 0.177320 0.201000 0.143590 -0.264100
reaches 0.491690 0.077425 -0.416940 0.453360 0.234620 0.737420 0.181540 -0.651740 -0.163650 -0.922910 -0.707990 -0.350400 -0.259890 -0.123040 0.333780 -0.119270 -0.310130 -0.288580 0.118300 0.270540 -0.089409 1.647200 -0.427490 0.040047 0.001807 -0.058465 -0.000712 0.832390 -0.269280 0.071497 0.170980 0.034528 0.234410 -0.074844 0.241950 0.568400 -0.519850 0.399590 -0.472340 -0.037554 -0.632320 0.445480 0.283240 0.234480 -0.645470 0.041004 -0.132060 0.352480 -0.138550 0.245240 0.838640 -0.523610 0.386570 0.253560 0.494530 0.264190 -0.364940 0.162890 0.119750 0.845760 -0.757680 0.204830 0.419930 -0.164670 0.187050 0.081943 0.830860 -0.017230 0.305480 -0.074286 0.116450 0.372440 -0.402800 0.412840 0.226940 0.960960 -0.197290 0.223700 0.306310 0.105730 -0.046877 -0.469700 -0.406320 0.369260 -0.031152 -0.059085 0.262510 -0.395870 0.299250 -0.364570 -0.095121 0.352260 0.116010 -0.575230 0.021383 0.079679 0.203640 0.131140 -0.108560 -0.244630 0.189970 0.311050 0.000278 0.779450 -0.531890 -0.780230 -0.020539 0.948870 -0.303270 -0.279030 0.176160 0.375980 1.258900 -0.449230 -0.233420 -0.284220 0.288850 0.186750 0.269730 0.674830 0.116630 0.112220 -0.266210 -0.154610 -0.037371 -0.173380 0.533440 -0.944370 -0.180900 -0.197170 0.023733 -0.170140 -0.073109 -0.325880 -0.561740 -0.235980 0.512080 0.094424 0.301790 0.099103 0.234160 -0.018542 0.471820 0.719460 0.908520 -0.034272 -0.228110 0.236200 -0.272140 0.252530 0.378880 0.195710 -0.147340 0.226370 0.206800 -0.112360 0.052649 -0.159510 -0.047689 -0.389740 -0.120900 -0.162540 -0.277410 -0.019050 0.583770 0.203820 -0.196190 -0.570960 -0.157570 0.108110 -0.329470 0.490930 0.190420 -0.263810 -0.143150 -0.506930 0.932810 -0.598700 -0.084408 -0.340940 0.981640 0.111300 0.339120 0.688350 0.385440 0.140050 0.195090 -0.085344 -0.146510 0.402340 -0.431910 0.043387 -0.405750 0.096173 -0.195100 -0.298610 0.653130 0.278350 -0.329760 -0.302550
arrives 1.122000 0.350100 0.341690 0.214330 -0.257140 -0.194960 0.045406 -0.004431 0.784230 0.046492 -0.032362 -0.214360 -0.203720 0.211660 0.361380 -0.602760 -0.033616 0.144680 -0.414140 0.486990 0.801410 1.131300 0.109320 0.360960 0.194950 0.017453 -0.438450 0.482620 -0.185030 0.244750 0.094802 -0.592740 -0.364600 -0.084266 0.214670 0.038186 -0.322260 0.547430 -0.366200 -0.162280 -0.556220 0.787960 -0.172820 0.554850 -0.173360 0.213860 -0.158800 -0.075884 0.038996 -0.101580 0.303600 -0.383310 -0.173150 0.219830 -0.100630 0.329480 -0.490550 -0.424190 0.771820 0.391570 0.188380 -0.110450 0.646110 -0.024390 -0.562200 -0.969780 0.642870 -0.301030 0.048598 0.445410 -0.025093 0.179120 -0.037338 0.379820 0.112740 0.654820 -0.490110 -0.059425 0.285280 0.080921 -0.334020 -0.117680 -0.022274 -0.091880 -0.237780 0.120060 -0.298160 -0.081346 -0.572580 -0.433570 -0.376410 -0.057167 -0.532980 0.272710 -0.958860 0.392720 -0.555960 -0.174380 0.128610 0.452360 0.119410 0.936180 0.117000 0.343140 -0.123410 -0.434790 -0.004055 0.480600 0.031008 0.193060 0.843680 -0.782190 0.820060 -0.335490 -0.487140 -0.953280 -0.104080 0.115020 -0.617310 0.235650 -0.131220 -0.188980 0.325120 -0.226660 0.190780 0.284460 0.002329 -0.062353 -0.250170 0.346130 0.341520 -0.222930 -0.067332 -0.552270 -0.400310 -0.249000 0.603380 0.089232 0.042606 -0.086919 0.224990 0.004381 0.377750 0.309800 1.130400 0.421850 0.047280 -0.350850 -0.249700 0.109310 0.172140 -0.066237 0.064619 0.552840 -0.456670 0.404740 -0.171960 -0.147770 -0.229180 -0.698480 0.135180 0.087544 0.234420 0.008126 0.437010 -0.117700 -0.807070 -0.772020 -0.175120 0.127910 -0.264340 -0.431670 -0.026731 0.348410 -0.137050 0.366180 -0.116800 -0.277290 0.598870 -0.475470 0.443710 -0.830150 -0.084955 -0.423660 0.396760 -0.902360 0.106170 -0.470160 -0.433680 -0.456370 -0.200510 0.244750 -0.709390 -0.228080 -0.163390 0.528640 -0.524760 -0.399010 -0.280050 -0.369580
car 0.015682 0.193550 -0.550930 -0.070453 -0.659230 0.255970 -0.344350 -0.179640 0.639070 -0.418800 0.319960 0.335460 0.211220 0.415920 0.285990 -0.257770 -0.133410 -0.257310 0.277120 -0.326950 0.110080 2.732200 0.466840 -0.735420 0.119340 -0.607560 0.188820 0.167390 0.071712 -0.656010 -0.514850 0.769700 -0.016761 -0.198930 0.274780 0.157670 0.003015 -0.351700 0.138300 0.601070 0.194420 -0.118020 -0.759830 0.685670 0.311390 0.262800 0.395580 -0.697820 -0.216490 -0.291960 0.025405 0.238870 0.778170 -0.047592 -0.232150 0.061213 -0.048265 -0.201520 0.326790 -0.347590 0.099897 -0.517590 -0.599870 0.135940 0.009483 -0.908240 -0.131660 -0.371360 -0.096381 -0.437590 -0.157740 0.335170 0.137410 0.082091 -0.322950 0.247890 -0.007326 0.002505 -0.107340 0.383380 -0.463470 -0.178170 0.289950 -0.233420 0.353320 -0.549130 -0.717030 -0.494110 -0.107060 -0.865770 0.097669 0.897200 -0.631570 0.248030 -0.136750 -0.176900 -0.242180 -0.624280 -0.475770 -0.141460 -0.343510 0.126210 -0.583720 0.120550 -0.041401 -0.122530 0.159600 0.312840 0.482910 0.037330 0.375150 -0.323520 -0.453010 0.219230 -0.146800 -0.574640 0.422370 -0.575800 0.480100 -0.493660 0.830430 0.102510 0.143500 0.448010 0.424190 -0.229760 0.222130 -0.285150 0.432490 -0.732530 -0.145830 -0.070181 0.940050 -1.293100 -0.575150 0.175070 -0.087849 -0.011623 0.197010 -0.058473 -0.424270 -0.123150 0.132160 -0.053331 1.408600 0.225200 0.177570 -0.356790 0.678320 0.549960 0.544560 -0.332380 -0.351550 -0.048678 -0.035712 0.693220 0.319640 0.165840 -1.090400 -0.815680 -0.351080 -0.257800 0.030240 0.448720 -0.209360 -0.275350 0.070283 -0.459580 -0.465570 -0.139990 0.318030 -0.864610 0.123410 0.457350 0.571700 -0.002236 0.347440 -0.135590 -0.201640 0.305600 1.352000 -0.602700 0.279760 -0.418200 0.766460 -0.317690 -0.305100 0.766400 0.480010 0.265050 -0.611960 0.723990 -0.535570 0.233020 0.557820 0.193080 -0.059356 -0.042328 -1.145900 0.510910
departure -0.054986 -0.162960 0.503570 -0.204290 -0.332520 0.132100 -0.453340 -0.019693 0.467120 0.298780 0.423440 -0.194410 0.019987 0.231000 0.211820 -0.383120 -0.128290 0.579810 -0.022089 -0.132800 0.119480 1.414800 0.145210 0.305250 0.278010 1.005300 -0.143140 -0.230090 -0.364880 -0.042604 -0.314960 -0.384110 -0.117970 0.205080 -0.000221 0.501750 -0.400830 -0.186500 -0.126350 -0.042803 -0.291830 -0.274000 0.614830 0.390980 0.139000 -0.292560 -0.112290 0.601950 -0.245120 0.029360 -0.147500 -0.059259 -0.455210 0.037028 0.680250 -0.113410 0.464850 -0.522170 0.002391 0.148100 0.934180 -0.103580 -0.532700 -0.353190 0.028123 -0.607990 0.335530 0.293590 0.736870 0.743030 0.171480 0.188040 0.973950 0.192990 0.417610 0.130210 -0.327410 -0.058694 -0.421420 0.063233 -0.159660 0.014172 -0.395360 -0.176590 0.247390 0.152440 0.236880 -0.148580 -0.217520 -0.234890 -0.026459 0.129680 -0.046776 -0.190050 -0.897230 0.164630 -0.583780 0.115020 -0.127730 0.131330 0.101140 0.287690 0.379830 -0.171400 -0.524980 -0.189500 -0.042879 0.313830 -0.423560 0.431410 -0.415360 -0.672260 -0.018903 -0.101090 0.769470 -0.191130 0.392220 0.242840 0.800660 0.354090 -0.018596 0.044354 0.337130 0.055159 0.236930 -0.346800 -0.207630 0.274580 -0.144350 0.139090 -0.020055 0.406880 0.365810 -0.211620 0.164890 0.446240 -0.002482 0.021100 -0.317180 -0.085172 -0.339930 0.306470 0.563500 0.085957 1.276700 0.207410 -0.055634 -0.547570 -0.080106 -0.401080 -0.104990 0.345800 0.461870 0.735830 0.080695 -0.405050 -0.013567 -0.195560 0.561820 -0.359070 -0.024208 -0.587890 0.119480 -0.024266 -0.020326 0.337320 -0.970200 -0.187940 0.315610 0.582670 0.029284 0.004411 0.060539 0.076469 0.225800 0.135010 0.049686 0.333350 -0.250350 -0.788010 0.463040 -0.094507 0.738780 -0.053800 -0.352420 -0.104870 0.274780 -0.128370 -0.234750 0.288700 0.098607 0.343620 -0.437720 -0.077150 0.286380 -0.201960 -0.041070 -0.364600 -0.111740 0.149530
2153 -0.175530 0.138620 0.578020 -0.285140 -0.142930 -0.078398 -0.021134 -0.434270 0.020445 -0.210230 -0.024997 -0.215410 0.180910 0.171180 -0.490980 -0.169060 -0.325560 -0.388930 0.229430 -0.262850 -0.425920 -0.636330 -0.230690 -0.201020 -0.361860 0.285780 0.058932 0.640970 -0.105790 0.171270 0.368210 0.200190 -0.225590 -0.195090 0.070011 0.208140 0.196950 -0.079868 -0.228260 -0.048958 0.152850 0.024916 -0.204670 -0.324270 -0.105160 0.434910 -0.229050 0.090612 -0.053735 -0.123280 -0.196080 -0.620920 0.124340 0.093836 -0.003069 0.070433 0.526490 0.593570 0.078849 -0.056935 -0.227850 -0.082934 0.330430 -0.069038 0.137700 -0.092975 0.026755 -0.362390 -0.169910 0.901440 -0.136670 -0.486880 -0.431990 0.259180 0.732270 0.102120 0.224350 0.393330 -0.081574 0.056604 -0.383270 -0.458530 0.411530 0.120980 0.044643 0.600380 0.152760 0.081045 -0.063058 0.746170 -0.474820 0.126450 -0.518740 0.239790 0.724030 0.130410 0.271840 -0.041259 0.262820 -0.113380 0.334310 0.350390 0.091338 0.214890 -0.675900 0.589310 0.516850 -0.656660 0.015461 0.195060 0.112760 0.412870 0.616490 0.139740 -0.088987 0.025063 -0.300770 0.464250 0.750130 0.305070 -0.239510 -0.623660 -0.213680 -0.462440 0.099765 0.641720 0.712030 -0.416270 -0.615460 0.011863 -0.019054 0.208860 0.027097 -0.314560 -0.650360 -0.783770 0.137790 0.454520 -0.108400 0.682690 -0.288630 -0.324030 -1.156000 0.135940 0.030406 -0.095288 -0.167280 0.343870 -0.361270 -0.166770 -0.353750 0.266360 0.267430 0.022118 -0.735380 -0.501920 0.312550 -0.664200 -0.059946 0.393550 0.343560 0.455190 0.427660 0.182610 -0.261670 0.300460 0.287340 -0.222340 -0.111970 -0.545620 -0.301540 -0.083260 -0.042473 -0.556790 -0.086029 -0.457370 0.697550 0.094615 0.331040 -0.913250 -0.533200 0.453460 0.358160 0.064203 -0.010795 0.132060 0.336200 -0.321580 -0.287610 -0.084290 -0.128140 0.013163 0.284600 -0.313740 0.313310 -0.470030 0.020519 0.267050 -0.276080 -0.869070
thanks -0.040394 0.031417 0.028130 0.030764 -0.140990 -0.594380 -0.435680 0.120210 0.173770 0.381210 -0.214910 0.415560 -0.342000 0.194280 0.528690 0.479290 0.257440 -0.062420 0.038204 -0.147710 0.008255 1.749400 0.000581 0.016145 0.071162 -0.109130 0.050954 0.629940 0.434190 -0.315870 0.063428 -0.307440 0.011471 -0.052589 -0.110770 -0.120400 -0.363690 0.153790 0.104300 -0.325910 -0.063628 0.058568 -0.298340 0.425220 0.078376 -0.171930 0.421960 0.257590 -0.501210 -0.225510 -0.278290 -0.166830 0.183780 0.570210 0.059956 -0.067167 -0.227110 0.057478 -0.048561 -0.366640 0.001754 -0.608020 -0.443940 -0.012585 0.166980 0.079852 0.287420 0.024690 0.246400 -0.338450 0.002611 -0.086757 0.171050 0.041185 0.089519 0.209000 -0.142040 0.087281 -0.356080 0.370580 0.027979 -0.034094 -0.207080 0.255910 -0.032527 0.351520 0.422370 -0.290190 0.562210 -0.620470 0.153040 -0.041646 -0.054943 0.144960 -0.518820 -0.060821 0.203200 0.069059 0.259710 -0.203200 0.316120 -0.108500 -0.121340 0.053305 -0.175290 0.085887 -0.072276 1.026200 -0.728180 -0.334880 0.173280 -0.132010 -0.340510 -0.077816 -0.285700 0.065411 0.087585 0.019971 0.083395 0.354570 -0.231720 -0.049813 0.120660 -0.230260 0.025410 -0.377880 -0.188430 -0.766140 0.233510 -0.283210 0.336430 0.003345 -0.000073 -0.375420 0.051384 0.013684 -0.292410 0.684610 0.310940 -0.284830 -0.087433 0.033405 -0.147110 0.135670 0.913250 0.015536 -0.281510 -0.959410 -0.400850 0.578330 -0.603870 -0.137390 0.345100 -0.232390 -0.281170 -0.162160 -0.347140 -0.077739 0.154370 -0.513590 0.234880 0.184420 0.078278 -0.500210 0.082954 0.243010 0.192880 -0.025404 -0.282390 0.114420 -0.472050 -0.326700 0.189630 0.570630 -0.256680 0.448020 -0.406400 -0.217990 -0.189920 0.210630 1.131200 0.389260 0.004489 0.205850 -0.058302 -0.396020 0.278220 -0.122610 0.061496 -0.071522 -0.155900 0.303400 -0.540580 -0.014802 0.130400 -0.501970 -0.288610 0.221740 0.082690 0.170610
iah 0.078136 -0.655860 -0.378720 0.607830 -0.422880 -0.253230 -0.011608 0.697510 0.466280 0.627820 -0.405570 -0.258840 0.231380 0.679420 -0.334240 0.699270 -0.277090 0.611720 0.007027 -0.265260 0.070761 -0.477230 0.225520 0.330150 -0.567360 0.113960 -0.179800 0.261490 -0.961940 -0.503890 0.444920 0.261770 0.201320 0.066089 0.422200 0.118000 1.096700 -0.244040 0.390640 -0.501400 0.081006 -0.634380 0.612650 -0.194410 -0.237710 -0.326240 -0.780400 -0.405170 0.252690 0.339540 0.204190 0.255420 0.483280 -0.071896 0.088849 -0.222450 0.698590 0.140660 -0.285690 0.329540 0.617070 0.694660 0.008623 -0.253720 -0.456520 -0.211560 0.021323 0.058479 -0.052419 -0.409520 -0.736100 -0.005279 0.111350 -0.432700 -0.598210 -0.248910 -0.261640 -0.553470 0.152100 -0.323890 0.557880 -0.139120 0.689060 0.121680 -0.329490 0.083005 -0.695790 0.278150 0.390120 0.702610 -0.837580 0.221890 0.360480 0.120620 0.595630 0.006125 0.495250 0.421090 0.508120 0.318340 -0.084696 -0.362290 0.224980 0.086682 -0.182180 -0.404880 0.781570 0.179150 0.091742 -0.340480 0.485060 -0.074836 0.057874 0.383210 -0.274510 -0.084669 0.382520 -0.091244 0.255790 0.073140 -0.616270 -0.403780 -0.253840 0.290340 0.285310 0.474380 -0.349200 0.313350 -0.061914 0.384410 -0.087552 0.529520 -0.381020 0.916290 -0.039731 -0.728310 0.516010 0.256670 0.038067 0.088636 -0.052256 0.087033 -0.193960 -0.317020 -0.840260 -0.004946 -0.459410 0.382290 0.588800 -0.413170 -1.274600 -0.328520 0.236050 -0.174450 0.063095 0.395770 0.192040 0.099091 -0.517460 -0.049759 -0.170250 -0.142220 0.910370 -0.170210 -0.356270 -0.226430 -0.437560 0.186400 0.127240 0.075251 -0.160970 0.197080 -0.488740 -0.425240 -0.205390 1.059200 -0.017751 0.609960 0.302650 1.080500 -0.814680 -0.285820 0.225260 -0.417700 0.381840 0.489630 -0.106420 0.267330 0.483410 -0.175430 -0.365150 0.125260 -0.176360 -0.061454 -0.386270 0.651880 -0.201200 0.308350 -0.563620 -0.303550
colorado -0.546930 0.568990 -0.024764 0.229560 0.210840 -0.271460 0.079271 -0.286110 -0.633260 -0.538500 -0.214330 -0.171650 -0.187190 0.506850 0.713660 0.674310 -0.090633 0.127050 -0.664710 -0.279360 0.105590 1.465700 -0.619680 0.529640 0.812460 0.330000 -0.514650 -0.024602 -0.192180 -0.294720 0.470610 0.174000 -0.038149 -0.315280 0.266070 -0.344230 0.158240 0.516190 0.372790 0.846300 0.262730 -0.610160 -0.008601 -0.448060 0.493770 0.349170 0.343050 -0.228670 -0.066441 -0.112220 0.572720 0.826600 -0.042542 0.106680 0.232810 0.480340 -0.643730 -0.418430 -0.125980 0.833000 0.341790 0.335240 -0.211150 0.150020 0.411440 0.037632 0.058181 0.242810 0.297780 -0.386350 -0.511940 -0.495370 -0.172200 -0.135350 0.265620 0.230480 -0.227540 0.460960 0.002061 0.436070 -0.356020 0.102620 -0.588280 0.319400 0.005365 -0.143270 -1.453200 -0.044990 0.638870 0.154780 -0.325460 0.186280 0.319450 0.277380 0.568400 -0.954850 0.336980 -0.161070 0.280810 -0.004131 0.022432 0.125220 -0.060036 -0.372420 0.530040 -1.113600 -0.137390 1.738700 0.042219 -0.250320 -0.162590 0.382590 0.964680 0.569710 -0.234680 -0.040622 0.075775 -0.338960 -0.290690 0.484720 -0.461220 -0.977560 0.279360 -0.212710 0.616080 -0.406250 -0.142830 0.234950 -0.218130 0.036608 0.326010 0.126460 0.295630 -0.877210 0.905900 0.058568 -0.081503 0.790770 -0.770680 0.324050 0.246540 0.241160 -0.293720 0.698970 1.236500 1.007900 1.032900 0.165560 -0.009629 0.131600 -0.119530 -0.113240 -0.488360 -0.504040 0.249460 -0.596750 -0.211400 -0.028616 -0.100480 -0.486270 -0.626030 0.204370 -0.385130 0.256240 0.175940 0.116180 0.610260 0.306700 0.056409 0.259340 0.722760 -0.478910 0.269270 0.734950 -0.321720 0.013622 0.480170 0.027359 -0.533350 0.169030 0.222940 0.027697 -0.097118 0.123940 -0.827350 -0.168440 0.396900 0.547710 -0.141420 0.387720 0.312670 -0.310030 0.153480 -0.022288 -0.200340 0.562190 -0.412600 0.030163 -0.036589 -0.293190
cincinnati -0.185910 -0.110090 -0.967110 0.552150 -0.458540 -0.097575 -0.164990 -1.170200 -0.011796 -0.377070 -0.107600 -0.108870 -0.249630 0.605930 0.373440 -0.211490 -0.120960 -0.262880 0.092035 -0.282150 0.365730 1.078100 -0.391530 -0.207590 -0.028799 0.399180 -0.215320 -0.096373 -0.532200 -0.374300 0.539230 0.496940 -0.249860 -0.091529 0.361090 -0.232460 0.037671 0.555160 0.637470 0.351600 -0.481670 -0.407740 0.917860 -0.157290 0.054933 0.140830 0.152610 0.243250 0.099364 0.074761 0.168000 0.786960 -0.166820 0.477170 0.233230 -0.424100 -0.279910 0.294010 -0.225040 -0.007932 0.287500 -0.117610 -0.064762 -0.504990 0.420800 -0.396430 0.285020 0.303030 0.280300 0.490280 0.830330 -0.074386 0.290130 -0.334970 0.053551 -0.140520 -0.326890 0.911770 0.164810 -0.400620 -0.362890 0.315820 -0.388800 0.383080 -0.852150 -0.386420 -0.640890 -0.526210 0.726050 0.676440 -0.622980 0.829830 0.440110 0.197310 0.061235 -0.406900 -0.292120 0.311020 0.272420 0.046054 0.702770 0.124860 0.189130 0.193340 -0.015804 -0.544200 0.362980 1.554800 -0.297170 0.024758 -0.224280 0.793430 -0.332090 0.210830 0.029135 0.144220 -0.024714 0.463790 -0.104270 -0.191050 -0.115310 -0.165240 0.375310 0.750800 0.609480 -0.659970 -0.694670 -0.106630 -0.550200 0.093545 -0.024314 -0.101200 -0.155060 -0.491930 -0.283530 -0.131610 0.001130 -0.055776 -1.241300 0.670060 -0.155440 -0.351310 -0.708120 0.236950 1.115700 0.642970 0.618550 0.328610 0.385180 -0.078976 -0.017092 0.176500 -0.713550 -0.425320 -0.061455 -0.581270 -0.231310 -0.246470 0.036713 -0.344190 0.433010 -0.055766 -0.199930 -0.280030 -0.092773 0.017693 0.296720 0.733540 0.164930 -0.334270 0.513000 0.293060 -0.243270 0.880130 -0.396720 -0.247740 -0.627690 0.275940 -0.457440 -0.389760 -0.322850 -0.049215 0.322750 0.004544 -0.041522 0.018315 -0.301600 0.246370 0.550620 0.518830 0.485640 -0.119290 -0.296300 -0.031791 -0.543020 0.353500 -0.973050 0.381960 0.544670 -0.277320
petersburg 0.340860 0.413090 -0.368240 -0.651880 -0.232980 -0.259850 0.488860 -0.478210 0.884360 -0.162070 0.018746 0.118680 0.195170 0.066093 0.565940 0.453300 -0.307910 -0.261590 -0.419330 -0.334790 -0.469040 1.451200 -0.109470 0.674310 0.072453 0.260600 0.296630 -0.603240 -0.006365 -0.176260 -0.107470 0.579830 -0.677060 -0.151570 -0.527530 0.029404 -0.014128 0.709830 -0.162500 -0.132250 -0.755850 -0.250020 0.530190 -0.295140 0.000890 0.110270 0.253720 0.116080 0.067931 -0.053658 0.024239 0.396430 0.128640 0.344980 -0.154630 -0.452440 -0.296480 0.167830 0.601450 0.722760 -0.144030 0.433320 0.399830 -0.862760 0.061513 0.092238 0.130040 -0.078392 0.174840 0.363080 -0.836710 -0.219900 0.184570 -0.767680 0.113350 0.131330 -0.116610 0.545310 0.422610 -0.277310 0.176500 0.142830 0.067044 -0.455380 -0.251990 0.351440 0.263620 -0.433240 0.764200 -0.024437 -0.061556 0.545200 0.410680 0.291630 -0.548560 0.109690 -0.108440 0.219610 0.004230 -0.468560 0.145600 0.717560 0.028713 0.203180 0.906140 -0.412700 0.192240 0.371200 0.632560 0.390750 -0.054536 0.512750 0.223990 0.560240 -0.269720 -0.501170 -0.759150 0.218360 0.179080 -0.084857 -0.364330 -0.084605 0.504570 0.537270 0.037121 -0.196870 -0.021926 0.140740 -0.315290 -0.721150 0.432130 -0.498430 -0.013020 0.092996 -0.883100 0.704470 0.517070 -0.125120 -0.593110 0.382980 -0.219970 -0.558060 -0.778380 0.354850 0.966340 1.161300 -0.683870 0.568410 0.686870 -0.096520 0.132140 0.091998 0.102690 -0.859640 0.107880 -0.378320 -0.293150 -0.418180 -0.293180 -0.365790 -0.209190 0.348080 -0.209980 -0.259210 -0.813610 -0.043664 -0.659960 -0.070104 0.020817 -0.069697 -0.079573 -0.363210 0.640520 0.241930 0.414330 0.596810 -0.462490 -0.191620 0.352690 0.079292 -0.037113 -0.209140 -0.238300 0.065434 0.392740 0.052830 -0.233910 0.020106 -0.192040 0.317280 0.966050 0.910570 -0.625220 -0.208210 -0.145870 0.327570 -0.671260 -0.189050 1.001900 0.465380
go 0.371950 0.514660 -0.199920 0.036385 -0.001940 0.129660 -0.599680 -0.169950 -0.125480 1.128300 0.073403 0.004490 0.538060 -0.033365 0.010567 -0.095893 -0.494330 0.063759 0.089830 -0.056296 0.186520 2.975600 -0.162340 -0.002941 0.553230 0.145070 0.095315 0.250530 -0.216830 -0.278070 -0.164400 -0.655110 -0.171680 -0.052127 -0.173600 -0.142570 -0.447460 0.067067 0.023824 0.246050 0.303060 0.020652 0.261290 0.145700 -0.343600 0.443280 0.708580 -0.328550 -0.185590 0.102110 0.163010 0.029109 -0.256570 0.452080 0.214760 -0.193990 -0.294860 -0.102920 0.369290 0.081565 0.073579 -0.341350 0.014574 -0.224010 -0.038450 -0.146880 0.114410 0.228310 0.257200 -0.151630 0.563870 -0.181440 0.059048 0.195990 0.025149 -0.124070 -0.460880 -0.039676 -0.271570 0.093084 0.318280 -0.050686 0.269670 0.248480 -0.207380 -0.465620 -0.559530 -0.471130 -0.157940 -0.996370 0.236980 -0.002649 0.206280 0.168940 0.158470 0.227850 -0.051871 0.140150 -0.158790 -0.125320 0.284070 0.598720 -0.337410 0.169500 0.431240 -0.004367 -0.251840 1.339800 -0.166240 -0.067700 -0.026578 -0.134290 0.166640 0.264020 -0.273990 0.254720 0.612310 -0.054483 0.083073 0.158060 0.527340 -0.122690 0.626940 -0.298630 0.157200 -0.339700 0.213320 -0.292410 0.569870 -0.261960 -0.462240 0.137530 0.118480 -0.550560 -0.114640 0.011372 0.169970 -0.242550 -0.090646 -0.241820 -0.056868 -0.225200 0.151870 0.108840 1.268000 0.403580 -0.091400 -0.268780 -0.117450 0.093535 0.805870 0.870510 -0.411130 0.250290 -0.155170 -0.062168 -0.144790 -0.253570 -0.058517 0.130070 -0.475270 0.210420 0.114940 -0.203320 0.173950 0.019633 -0.287430 -0.113570 -0.443190 0.117370 -0.219620 0.097081 0.106190 0.207820 0.412780 0.274140 -0.602210 -0.104900 0.478120 0.024687 1.228200 -0.667040 -0.512440 -0.046612 -0.030135 0.092327 0.223940 -0.018565 0.113040 -0.132860 -0.327990 0.258630 0.029890 0.027141 -0.435220 -0.077842 -0.333720 0.014923 -0.079494 0.100170
as 0.364380 0.314640 -0.403870 -0.122620 0.047504 0.027443 -0.184950 0.429090 0.018310 -0.110650 0.324490 0.479430 0.056019 -0.015851 0.368260 0.117380 -0.306900 0.471900 0.179720 -0.482680 -0.003983 2.773400 -0.055091 -0.314410 0.125780 -0.106730 -0.010031 -0.069373 -0.026013 0.218090 0.070025 0.092294 -0.426430 0.024418 0.148710 -0.412500 -0.845020 -0.725450 -0.034937 0.088198 -0.041176 -0.103680 -0.203420 0.017247 -0.098891 -0.079597 0.350670 -0.060700 0.143200 0.351680 -0.346790 0.200760 -0.165540 0.586540 0.104360 0.026148 -0.123600 -0.268100 -0.332160 0.184310 -0.037109 -0.216010 -0.238360 0.151890 0.076170 0.091472 -0.034183 0.373320 0.196610 0.218250 0.618330 0.293930 0.101260 0.611240 -0.340640 0.230720 -0.249940 -0.334400 -0.121340 -0.289220 0.317470 -0.128310 -0.192760 0.076799 0.122300 0.314550 -0.486650 -0.122750 0.459700 -0.383030 -0.292900 0.092495 -0.197560 0.164800 -0.270750 -0.179460 -0.197900 -0.062728 0.046778 0.065240 0.321220 -0.072622 0.116720 0.380720 -0.127580 -0.225170 -0.237030 0.996570 -0.261670 0.133420 0.169770 -0.429440 0.034933 -0.061549 0.607320 -0.014297 -0.133850 0.252420 -0.432450 -0.253800 0.120470 0.144100 0.776020 0.452530 0.437840 -0.907050 -0.005412 0.600240 0.292540 -0.402050 -0.133460 0.069888 0.328930 -0.395540 0.260850 -0.031653 -0.071965 -0.110960 0.031741 -0.181460 -0.090746 0.063655 0.372120 -0.102800 1.311500 0.038869 -0.227100 -0.594670 0.281570 0.076136 -0.143130 0.067323 -0.108650 -0.194870 0.388340 0.070976 -0.108560 0.268260 0.102790 -0.523050 0.245930 0.120800 0.036469 0.132610 -0.075075 -0.104880 0.058019 -0.079499 -0.258410 0.794970 0.007131 0.107100 0.817410 -0.306150 0.003748 0.189640 -0.328840 -0.374200 0.016414 0.002092 1.156000 -0.357660 -0.147190 0.055602 -0.135110 0.080765 -0.302230 0.177290 -0.235860 0.312300 0.003663 -0.208900 -0.323920 0.198800 0.537980 -0.228620 -0.501030 -0.020566 0.074674 0.088034
dfw 0.418100 0.032972 0.377360 0.258340 -0.421120 -0.350270 0.100180 -0.329870 0.409250 -0.319330 0.168000 -0.008388 -0.062298 1.213900 -0.425810 0.305650 0.382290 -0.053192 -0.282600 0.027505 -0.307890 -0.389730 -0.014934 0.493910 -0.571090 0.467080 -0.422720 0.217550 0.392560 -0.472650 -0.365910 0.937310 -0.807150 -0.386350 0.083452 0.021154 0.479690 0.955150 0.554200 0.113360 0.586050 0.381040 0.311750 -0.210660 0.387440 0.433470 -0.181330 0.217410 -0.105620 0.427460 -0.160060 -0.130170 -0.075843 0.094913 0.369010 0.096086 0.041860 0.663740 -0.906310 -0.092717 0.164260 -0.230060 -0.500430 0.000881 -0.830990 -0.179090 0.381240 0.191210 -0.214940 -0.350560 -0.225130 0.022702 -0.332280 -0.364170 -0.507360 0.153610 0.141840 0.771730 0.045148 -0.694090 -0.747370 -0.176280 0.560370 -0.566860 -0.398790 -0.142990 -0.149790 0.137770 0.551640 0.185100 0.458570 -0.116800 1.036800 -0.239870 0.402760 0.082996 0.393710 0.204900 -0.169930 0.144500 0.596310 0.742910 0.469960 -0.178880 -0.017623 -0.182680 0.242400 -0.472040 0.366960 -0.022094 0.319100 0.088420 0.214940 -0.162270 0.219450 -0.331810 0.076328 -0.378150 0.474120 0.222080 -0.089790 -0.634590 0.568680 0.052137 -0.336700 -0.066239 0.067854 -0.141660 0.646460 0.408680 -0.497410 0.143420 0.533550 -0.060767 -0.451660 0.303580 0.280190 0.479840 0.083354 0.747170 0.246490 -0.153500 0.327860 -0.125990 -0.271480 -0.155330 -0.105820 1.447700 0.600090 -0.136150 -0.381600 0.262840 -0.373440 0.098943 0.143080 0.127930 -0.435050 0.369260 -0.089676 0.390460 0.294950 -0.490060 0.288440 0.427870 -0.287380 0.075198 0.280900 0.118190 0.157140 -0.344460 0.396030 -0.076953 0.290670 -0.494410 -0.045943 0.351280 0.073172 -0.265740 -0.622340 -0.030285 -0.414290 0.669780 0.359650 -0.094448 0.118600 -0.295530 -0.429520 0.556670 -0.433550 -0.258590 0.031226 -0.140620 -0.298530 0.224140 -0.369320 0.151690 -0.848260 0.629780 -0.483400 0.040538
